svm_type nu_svr
kernel_type rbf
gamma 3
nr_class 2
total_sv 192
rho -3.1230201784349472
SV
-5 1:0.94887342 2:0.9672754 3:0.98320564 4:0.98487494 5:0.97690181 6:0.97947879 7:0.98574066 8:0.98778604 9:0.98383906 10:0.97916363 11:0.97192365 12:0.96703304 13:0.97775842 14:0.98196028 15:0.9854478 16:0.983554 17:0.98153726 18:0.98814172 19:0.98853998 20:0.98734559 21:0.98413004 22:0.98613117 23:0.98629823 24:0.98419957 25:0.98282454 26:0.98527323 27:0.97624097 28:0.97480624 29:0.96511918 30:0.94691523 31:0.9370484 32:0.93539101 
5 1:0.97605366 2:0.99291266 3:0.99634381 4:0.9964171 5:0.99757843 6:0.99969326 7:0.99986981 8:0.99984627 9:0.99962665 10:0.99862074 11:0.99855442 12:0.99944888 13:0.99946462 14:0.99927966 15:0.99938491 16:0.99915838 17:0.9987545 18:0.99880919 19:0.99885922 20:0.99886485 21:0.99878529 22:0.9973895 23:0.99248696 24:0.73483361 25:0.62902348 26:0.5898285 27:0.57483481 28:0.57516666 29:0.64246449 30:0.68681767 31:0.69516016 32:0.74250302 
-2.1062569004781828 1:0.95987784 2:0.98564269 3:0.99302642 4:0.99533489 5:0.99766897 6:0.99920728 7:0.99955005 8:0.99761216 9:0.99744368 10:0.99677057 11:0.98994106 12:0.9887675 13:0.98287344 14:0.98985614 15:0.99245781 16:0.99336529 17:0.98581904 18:0.97973519 19:0.96906481 20:0.94587587 21:0.90299758 22:0.85037286 23:0.79890519 24:0.52674865 25:0.51251198 26:0.59788005 27:0.58645491 28:0.58775997 29:0.63534742 30:0.68029777 31:0.68306601 32:0.71412316 
-5 1:0.98385691 2:0.99269663 3:0.99876966 4:0.99950835 5:0.99912827 6:0.99953279 7:0.99958351 8:0.99987085 9:0.99986472 10:0.99991354 11:0.99983607 12:0.99980746 13:0.99973771 14:0.99940186 15:0.99970704 16:0.99995315 17:0.99996061 18:0.9999277 19:0.99995631 20:0.99990756 21:0.99998713 22:0.99998905 23:0.99993258 24:0.99934862 25:0.99949869 26:0.99877494 27:0.99751744 28:0.99940443 29:0.9986561 30:0.99748715 31:0.99687898 32:0.997151 
-1.4913749856517224 1:0.50712379 2:0.68524971 3:0.69346896 4:0.51337772 5:0.54659878 6:0.59087682 7:0.54418033 8:0.55095598 9:0.537416 10:0.56509559 11:0.60818065 12:0.55556335 13:0.51891301 14:0.60337221 15:0.66569287 16:0.69503499 17:0.6957981 18:0.70743802 19:0.58495773 20:0.51882066 21:0.41681367 22:0.418176 23:0.45655769 24:0.40616522 25:0.39821394 26:0.59382785 27:0.62823845 28:0.75221026 29:0.7468281 30:0.59537455 31:0.57170385 32:0.57350438 
0.50448601320376296 1:0.85559074 2:0.94924727 3:0.96297794 4:0.96559272 5:0.96331117 6:0.97251362 7:0.97841418 8:0.97915876 9:0.97420668 10:0.95077409 11:0.9411046 12:0.90599909 13:0.87791332 14:0.87054819 15:0.82330097 16:0.78199185 17:0.81124418 18:0.81641332 19:0.74258879 20:0.7302145 21:0.65331487 22:0.61355621 23:0.64543743 24:0.41920947 25:0.5307032 26:0.62601842 27:0.59955573 28:0.53556026 29:0.56463395 30:0.59804415 31:0.59871909 32:0.63088483 
5 1:0.99901256 2:0.99941772 3:0.99962984 4:0.99976173 5:0.99975923 6:0.99976982 7:0.99958048 8:0.99922603 9:0.99606695 10:0.99841455 11:0.99971152 12:0.99974088 13:0.99981025 14:0.99900861 15:0.99990129 16:0.99991086 17:0.99986159 18:0.9998728 19:0.99990631 20:0.99992345 21:0.99995486 22:0.99993632 23:0.99988194 24:0.99972322 25:0.99980093 26:0.9997397 27:0.99972345 28:0.99980049 29:0.99959518 30:0.99825595 31:0.99885721 32:0.99790511 
-5 1:0.84618292 2:0.90864923 3:0.93703611 4:0.92746111 5:0.91592605 6:0.91632344 7:0.90592855 8:0.89234304 9:0.89461872 10:0.90245343 11:0.87146444 12:0.87128054 13:0.86059477 14:0.89230089 15:0.89621632 16:0.91086739 17:0.91079236 18:0.90083704 19:0.90709094 20:0.90174024 21:0.92991973 22:0.9394752 23:0.90865357 24:0.89019069 25:0.88923095 26:0.89483592 27:0.89669575 28:0.91255895 29:0.90882834 30:0.85530914 31:0.86675012 32:0.86809521 
-5 1:0.92313462 2:0.96753034 3:0.98232756 4:0.98121169 5:0.98121208 6:0.98264281 7:0.98112584 8:0.97978252 9:0.97566721 10:0.97008728 11:0.97066368 12:0.96545853 13:0.95429034 14:0.96284307 15:0.9745962 16:0.97095353 17:0.9655517 18:0.96537832 19:0.96284285 20:0.96365858 21:0.96852651 22:0.95706988 23:0.93761094 24:0.95099113 25:0.96672457 26:0.9729907 27:0.97243146 28:0.96970515 29:0.94272336 30:0.89360973 31:0.88222717 32:0.86542426 
-5 1:0.97291418 2:0.9893668 3:0.99144877 4:0.98851215 5:0.98935359 6:0.98449743 7:0.98978867 8:0.99334301 9:0.99172426 10:0.99000044 11:0.99122465 12:0.98658828 13:0.98443729 14:0.99025347 15:0.98842224 16:0.99239836 17:0.99565385 18:0.99283937 19:0.99210414 20:0.99134597 21:0.98994882 22:0.9866191 23:0.98390717 24:0.98600102 25:0.98584229 26:0.9885552 27:0.99271208 28:0.99467136 29:0.99344634 30:0.97407663 31:0.97049189 32:0.96339623 
5 1:0.8489153 2:0.81525429 3:0.79686726 4:0.78384782 5:0.77974782 6:0.78648976 7:0.78026975 8:0.79054238 9:0.82450986 10:0.85945193 11:0.86856208 12:0.87168322 13:0.85472947 14:0.8581281 15:0.87152896 16:0.88249924 17:0.88202248 18:0.8970212 19:0.8857644 20:0.88307409 21:0.88014485 22:0.89843735 23:0.89004039 24:0.9141362 25:0.91406435 26:0.91611062 27:0.93220421 28:0.94488351 29:0.96237026 30:0.99278688 31:0.99552535 32:0.99584382 
-0.92081282781120577 1:0.7989837 2:0.82687058 3:0.8626547 4:0.84366715 5:0.75840998 6:0.76534516 7:0.79282477 8:0.82442787 9:0.83460454 10:0.83784364 11:0.792094 12:0.77370275 13:0.80875339 14:0.86530865 15:0.81079483 16:0.81409239 17:0.82885543 18:0.82839898 19:0.82609721 20:0.81502684 21:0.84049384 22:0.84489866 23:0.81878701 24:0.77628173 25:0.74544781 26:0.73630353 27:0.741936 28:0.82125706 29:0.84498768 30:0.84212423 31:0.8351893 32:0.83330529 
-0.37953739904867589 1:-0.41494081 2:-0.39776445 3:-0.034247747 4:0.1102179 5:0.092128583 6:0.099545277 7:0.24930482 8:0.39743203 9:0.40953422 10:0.34358081 11:0.29925702 12:0.29693569 13:0.31480754 14:0.43234154 15:0.4915464 16:0.3619192 17:0.42287259 18:0.47463743 19:0.4735516 20:0.48420784 21:0.44280584 22:0.3347101 23:0.31788792 24:0.34562862 25:0.33689327 26:0.3569663 27:0.34255207 28:0.2970856 29:0.22907284 30:0.16854792 31:0.18348112 32:0.18713042 
-0.13682364009197337 1:0.91650788 2:0.93934481 3:0.95485195 4:0.94477459 5:0.96635841 6:0.98262225 7:0.98461782 8:0.98891459 9:0.98353216 10:0.95358512 11:0.94537278 12:0.94772325 13:0.97396974 14:0.9619019 15:0.93590127 16:0.93761464 17:0.93135789 18:0.88466876 19:0.85771882 20:0.79507725 21:0.6658097 22:0.60788363 23:0.63853529 24:0.56108 25:0.49340856 26:0.49088077 27:0.565087 28:0.54237064 29:0.57884319 30:0.58988619 31:0.58482669 32:0.61182806 
5 1:0.93146671 2:0.98216859 3:0.99801396 4:0.99932874 5:0.99978164 6:0.99986516 7:0.99979573 8:0.9998848 9:0.99995226 10:0.99986116 11:0.99945257 12:0.99942438 13:0.99955518 14:0.99975348 15:0.9998726 16:0.99988309 17:0.99978509 18:0.99947588 19:0.99887647 20:0.99719153 21:0.99431145 22:0.99328358 23:0.99091971 24:0.69601679 25:0.63680313 26:0.64065262 27:0.61618463 28:0.62021199 29:0.67013226 30:0.70848957 31:0.71346601 32:0.74498132 
1.3409012244942915 1:0.90249653 2:0.94276156 3:0.96979874 4:0.96869529 5:0.97029858 6:0.97094462 7:0.97561445 8:0.96524902 9:0.95867587 10:0.94329434 11:0.90823833 12:0.89646122 13:0.90801324 14:0.92922958 15:0.93254605 16:0.92667635 17:0.90921958 18:0.89948561 19:0.87733724 20:0.8670192 21:0.89199114 22:0.92983133 23:0.93283174 24:0.92394386 25:0.94032897 26:0.96485408 27:0.96052804 28:0.94989549 29:0.9244219 30:0.8409479 31:0.82022202 32:0.83028034 
0.53298565490956462 1:-0.02861485 2:0.21136613 3:0.44643885 4:0.44677857 5:0.44377826 6:0.48798727 7:0.51333835 8:0.53167488 9:0.53323132 10:0.53544579 11:0.52425551 12:0.52048438 13:0.52212128 14:0.53103911 15:0.54207723 16:0.5513426 17:0.55379285 18:0.55607537 19:0.60313354 20:0.62438712 21:0.63638216 22:0.65363802 23:0.66729009 24:0.67794007 25:0.68391475 26:0.69241074 27:0.70447493 28:0.72276073 29:0.73994622 30:0.72746129 31:0.71725504 32:0.67581158 
5 1:0.92149728 2:0.93731866 3:0.92956885 4:0.93976101 5:0.94347863 6:0.95466923 7:0.9534466 8:0.95551374 9:0.95292698 10:0.93884075 11:0.94148248 12:0.94995699 13:0.95046635 14:0.92927065 15:0.90488067 16:0.90788816 17:0.93242318 18:0.94497716 19:0.95248993 20:0.95869931 21:0.94831776 22:0.92479501 23:0.92329548 24:0.9152973 25:0.91776903 26:0.92980544 27:0.94154233 28:0.9372809 29:0.9211706 30:0.83986183 31:0.82582707 32:0.82320344 
-5 1:0.98644634 2:0.98828366 3:0.98854946 4:0.98902027 5:0.99105599 6:0.99098914 7:0.99108379 8:0.99269887 9:0.99400445 10:0.99394137 11:0.99570421 12:0.99564217 13:0.99830599 14:0.99716461 15:0.99287518 16:0.99010222 17:0.98920436 18:0.98946455 19:0.99568253 20:0.99762933 21:0.99550921 22:0.98778362 23:0.98488643 24:0.98941174 25:0.99232924 26:0.99539544 27:0.99538009 28:0.99776427 29:0.99651797 30:0.99139804 31:0.99081534 32:0.99056773 
3.6134861247323093 1:0.999392 2:0.99764804 3:0.89908391 4:0.86596996 5:0.8463569 6:0.85655992 7:0.8696101 8:0.86019939 9:0.84412928 10:0.84600021 11:0.85926942 12:0.8789561 13:0.88485598 14:0.8810241 15:0.87795193 16:0.89175867 17:0.91559634 18:0.95798778 19:0.97993216 20:0.9957619 21:0.99634564 22:0.99728358 23:0.99991307 24:0.99972509 25:0.99948901 26:0.99913694 27:0.99903977 28:0.99919185 29:0.9994313 30:0.99942659 31:0.99921938 32:0.99912378 
5 1:0.92069305 2:0.94120119 3:0.94869749 4:0.93179469 5:0.90906766 6:0.92116637 7:0.90392371 8:0.89463572 9:0.91475798 10:0.91739984 11:0.90515281 12:0.90382949 13:0.91373019 14:0.91326715 15:0.91782815 16:0.9351743 17:0.92269639 18:0.9253582 19:0.90946066 20:0.91279375 21:0.92145626 22:0.93642548 23:0.9322667 24:0.90256974 25:0.901479 26:0.89403862 27:0.90522479 28:0.93279761 29:0.93065444 30:0.91330827 31:0.92701155 32:0.93141505 
3.28140512725777 1:0.95555891 2:0.98582198 3:0.9973124 4:0.99876682 5:0.99938976 6:0.99970525 7:0.99980935 8:0.99965994 9:0.99954343 10:0.99889852 11:0.99823634 12:0.99806158 13:0.9986986 14:0.99915193 15:0.99909588 16:0.99856234 17:0.99815327 18:0.9974373 19:0.99665356 20:0.99654205 21:0.98919662 22:0.9771822 23:0.9523193 24:0.52911431 25:0.52479572 26:0.55115946 27:0.52458216 28:0.53476119 29:0.59430184 30:0.62921106 31:0.62498885 32:0.64503171 
-0.58870849858051677 1:0.82505223 2:0.81984545 3:0.73857472 4:0.73219849 5:0.73851319 6:0.73180811 7:0.70369953 8:0.79266158 9:0.8059556 10:0.6961718 11:0.6566285 12:0.63687694 13:0.65751111 14:0.73609578 15:0.76015833 16:0.7515871 17:0.78916469 18:0.76883402 19:0.68696001 20:0.74613862 21:0.67266803 22:0.59933782 23:0.59992913 24:0.65224364 25:0.63260779 26:0.70405556 27:0.76781278 28:0.80589498 29:0.8021293 30:0.79388711 31:0.81939577 32:0.81424596 
-3.4864747452803018 1:0.72603047 2:0.81003713 3:0.87427263 4:0.88187011 5:0.88629805 6:0.88649372 7:0.8843397 8:0.87636667 9:0.81761008 10:0.75460804 11:0.73637716 12:0.74178588 13:0.70334409 14:0.75072239 15:0.80436016 16:0.8253639 17:0.8100537 18:0.81370222 19:0.83936525 20:0.79499888 21:0.82238859 22:0.84812222 23:0.76755893 24:0.7481335 25:0.81083769 26:0.86076005 27:0.84589588 28:0.80429826 29:0.70338482 30:0.56910044 31:0.53916816 32:0.55682939 
-5 1:0.85585688 2:0.90513989 3:0.93116111 4:0.92099542 5:0.8996784 6:0.91026123 7:0.87442879 8:0.87184668 9:0.88971738 10:0.88263357 11:0.88773221 12:0.8541048 13:0.84635066 14:0.85653316 15:0.86225149 16:0.85566982 17:0.85102352 18:0.87214623 19:0.87138779 20:0.87319506 21:0.91358326 22:0.9076683 23:0.87647337 24:0.85354585 25:0.83781232 26:0.83367278 27:0.86862054 28:0.90298731 29:0.9055572 30:0.8773163 31:0.87011089 32:0.86479107 
-5 1:0.98084861 2:0.97877874 3:0.96725575 4:0.95680759 5:0.94746645 6:0.95728694 7:0.95307798 8:0.93101303 9:0.95307507 10:0.95257816 11:0.95662502 12:0.96290483 13:0.93996896 14:0.93057262 15:0.93431691 16:0.95474572 17:0.9763593 18:0.97458505 19:0.97842309 20:0.98510682 21:0.98504487 22:0.98368454 23:0.98049228 24:0.97662945 25:0.97680059 26:0.9806959 27:0.99230844 28:0.9926244 29:0.99240569 30:0.99358875 31:0.99296142 32:0.99237928 
1.0816397272268279 1:0.40646796 2:0.46489396 3:0.52664724 4:0.54979029 5:0.57621665 6:0.62189924 7:0.65654749 8:0.6860452 9:0.70551797 10:0.62602251 11:0.593637 12:0.56900662 13:0.56038788 14:0.56527822 15:0.60241183 16:0.64510741 17:0.70377621 18:0.78407008 19:0.83265924 20:0.89503547 21:0.97605602 22:0.9470462 23:0.93444074 24:0.94967893 25:0.98111732 26:0.99562757 27:0.99817362 28:0.99728997 29:0.99859389 30:0.99927097 31:0.99913613 32:0.99908237 
5 1:1 2:1 3:1 4:1 5:1 6:1 7:1 8:1 9:1 10:1 11:1 12:1 13:1 14:1 15:1 16:1 17:1 18:1 19:1 20:1 21:1 22:1 23:1 24:1 25:1 26:1 27:1 28:1 29:1 30:1 31:1 32:1 
5 1:0.90647991 2:0.90281272 3:0.84566489 4:0.84355216 5:0.85277711 6:0.87557786 7:0.87525987 8:0.90536248 9:0.92342291 10:0.85438469 11:0.84777631 12:0.84127986 13:0.89131442 14:0.91144551 15:0.86898574 16:0.9008718 17:0.92113005 18:0.88573978 19:0.87145205 20:0.90623226 21:0.89182814 22:0.86883061 23:0.85599129 24:0.8499814 25:0.85923196 26:0.8887393 27:0.89890374 28:0.90200905 29:0.86884076 30:0.77921753 31:0.80039174 32:0.79876803 
-0.38272424183049997 1:0.67739878 2:0.68751858 3:0.54829222 4:0.47127262 5:0.40220241 6:0.46783631 7:0.44687606 8:0.5004153 9:0.52680024 10:0.39328547 11:0.36599054 12:0.31572062 13:0.32605848 14:0.37324372 15:0.42544383 16:0.47932048 17:0.48514253 18:0.44551223 19:0.48166572 20:0.51257478 21:0.50859202 22:0.32014494 23:0.23092127 24:0.28232181 25:0.27924534 26:0.4512849 27:0.61276777 28:0.71809771 29:0.70398595 30:0.42703591 31:0.46308457 32:0.45488392 
-0.28950113499582514 1:0.61406138 2:0.50379852 3:0.48670987 4:0.49906722 5:0.52175344 6:0.5229683 7:0.50974405 8:0.50577611 9:0.5060495 10:0.52042719 11:0.53466649 12:0.53694785 13:0.53340128 14:0.53764856 15:0.54951141 16:0.55157426 17:0.54622768 18:0.55023947 19:0.56192701 20:0.56314568 21:0.56828048 22:0.6262993 23:0.70403428 24:0.72168934 25:0.74600059 26:0.77130479 27:0.80645317 28:0.8992688 29:0.96934385 30:0.99924225 31:0.99932311 32:0.99941864 
-5 1:0.92998373 2:0.97436435 3:0.98924713 4:0.99011016 5:0.98975826 6:0.99398679 7:0.99747522 8:0.99633581 9:0.99628036 10:0.99798556 11:0.99767875 12:0.99677435 13:0.9959647 14:0.99768074 15:0.99677012 16:0.99411669 17:0.99168088 18:0.99666921 19:0.99500771 20:0.99253536 21:0.99176872 22:0.98467459 23:0.96400992 24:0.51101983 25:0.4861581 26:0.52133608 27:0.49763134 28:0.47433512 29:0.51319847 30:0.54394681 31:0.51482996 32:0.53709934 
5 1:0.99883491 2:0.99680279 3:0.9951595 4:0.99155723 5:0.9887547 6:0.99775663 7:0.99806481 8:0.99822235 9:0.99816855 10:0.99967399 11:0.99944389 12:0.99906373 13:0.99967811 14:0.99985071 15:0.99982993 16:0.99983729 17:0.99991061 18:0.99810402 19:0.99536127 20:0.9961653 21:0.99478669 22:0.99477196 23:0.99756639 24:0.99928882 25:0.99852466 26:0.99980299 27:0.9998796 28:0.99988201 29:0.99983465 30:0.99963977 31:0.99967503 32:0.99943883 
5 1:0.92940551 2:0.96295231 3:0.97075641 4:0.9660417 5:0.97097896 6:0.9746165 7:0.97337195 8:0.97480035 9:0.97388603 10:0.96689599 11:0.97097008 12:0.97220392 13:0.97778189 14:0.98234031 15:0.98105337 16:0.97664811 17:0.97758609 18:0.98120266 19:0.98131875 20:0.98576954 21:0.98212786 22:0.97996014 23:0.98402459 24:0.98887442 25:0.98768781 26:0.98499206 27:0.98629098 28:0.98308586 29:0.97222596 30:0.95951288 31:0.9579037 32:0.95679716 
-4.1460172247100067 1:0.99116465 2:0.99512546 3:0.99781062 4:0.99888074 5:0.99943101 6:0.99968777 7:0.99985021 8:0.99985627 9:0.9994042 10:0.9986376 11:0.9987485 12:0.99783683 13:0.99757017 14:0.99952358 15:0.99968257 16:0.99988125 17:0.99987175 18:0.99977156 19:0.99941689 20:0.99909437 21:0.99870183 22:0.99740504 23:0.98682417 24:0.74795693 25:0.62191633 26:0.5248262 27:0.52616107 28:0.53205712 29:0.57785856 30:0.60589858 31:0.60482982 32:0.65411911 
-5 1:0.99279009 2:0.99806112 3:0.9983434 4:0.9968951 5:0.99541874 6:0.99357248 7:0.99340492 8:0.99473875 9:0.9959287 10:0.99438372 11:0.99385172 12:0.99358244 13:0.99179086 14:0.99234698 15:0.99769476 16:0.99486973 17:0.99761138 18:0.99479176 19:0.99688959 20:0.99578692 21:0.9989038 22:0.99877087 23:0.99464359 24:0.99177431 25:0.98988539 26:0.99189175 27:0.99532373 28:0.99600179 29:0.9898772 30:0.9761771 31:0.97811486 32:0.97586749 
5 1:0.98089032 2:0.98747145 3:0.98262391 4:0.98262969 5:0.98709683 6:0.99220948 7:0.99557066 8:0.99330213 9:0.98717243 10:0.9741175 11:0.97876239 12:0.96490253 13:0.96922195 14:0.96803058 15:0.95968998 16:0.9574585 17:0.9616169 18:0.96578975 19:0.96160363 20:0.9632552 21:0.95307905 22:0.92090536 23:0.9142787 24:0.91671962 25:0.92731849 26:0.9642333 27:0.97226325 28:0.96505529 29:0.95158484 30:0.91023 31:0.90002698 32:0.92237292 
2.2095998074161924 1:0.88455072 2:0.91127859 3:0.89918294 4:0.88768169 5:0.86772366 6:0.86468258 7:0.88587628 8:0.86753737 9:0.85307752 10:0.85349395 11:0.85306461 12:0.84333287 13:0.87546813 14:0.90216111 15:0.90864098 16:0.92941562 17:0.91381192 18:0.91263553 19:0.93206565 20:0.91987712 21:0.93433097 22:0.92608997 23:0.90743581 24:0.88871565 25:0.8860717 26:0.89212356 27:0.90170353 28:0.93367155 29:0.93642502 30:0.90024428 31:0.90613027 32:0.89456225 
-5 1:0.78387061 2:0.77587229 3:0.71637824 4:0.69695435 5:0.69070437 6:0.65244378 7:0.67127893 8:0.71687688 9:0.72006364 10:0.72784252 11:0.70607573 12:0.67328278 13:0.71401079 14:0.72994469 15:0.71087754 16:0.71559099 17:0.75423256 18:0.73181381 19:0.74933359 20:0.72728234 21:0.77105917 22:0.79552756 23:0.75003691 24:0.75489637 25:0.76477969 26:0.73892499 27:0.79622348 28:0.85479325 29:0.83535509 30:0.80412373 31:0.82897755 32:0.82223958 
0.26454898674160099 1:0.23768277 2:0.34622796 3:0.44697334 4:0.45149606 5:0.48176176 6:0.51620663 7:0.5389866 8:0.54246346 9:0.54434277 10:0.54743169 11:0.55010151 12:0.54671141 13:0.54946666 14:0.5539996 15:0.61678139 16:0.78097104 17:0.87517997 18:0.93352229 19:0.95672581 20:0.97931089 21:0.98683462 22:0.99064664 23:0.99610834 24:0.99572022 25:0.99594444 26:0.99860739 27:0.99475046 28:0.99711936 29:0.99578486 30:0.99331856 31:0.99076529 32:0.99071136 
4.5439663914806161 1:0.96105645 2:0.97643124 3:0.96677844 4:0.97226784 5:0.97763379 6:0.96751664 7:0.9753853 8:0.97501759 9:0.9785712 10:0.97829562 11:0.97343912 12:0.97844126 13:0.981041 14:0.98314258 15:0.98807551 16:0.99010554 17:0.98564939 18:0.98558523 19:0.98255215 20:0.98239446 21:0.98952326 22:0.98546033 23:0.976757 24:0.98159672 25:0.98375252 26:0.98947485 27:0.98310918 28:0.97631748 29:0.9643991 30:0.93954252 31:0.94823464 32:0.9418449 
-1.8992753710140184 1:0.773279 2:0.7710172 3:0.75206331 4:0.73525051 5:0.70166759 6:0.69094522 7:0.6536682 8:0.64863226 9:0.65403219 10:0.66393378 11:0.68760437 12:0.64364143 13:0.61932719 14:0.65843255 15:0.65330364 16:0.68527127 17:0.75796898 18:0.75576281 19:0.78390669 20:0.80008375 21:0.80047488 22:0.81353725 23:0.81003391 24:0.82276423 25:0.80993427 26:0.82478309 27:0.82143507 28:0.84485013 29:0.8561381 30:0.86172858 31:0.8529352 32:0.85517457 
-5 1:0.98817306 2:0.99569498 3:0.99713247 4:0.99830494 5:0.99958413 6:0.99989883 7:0.99996138 8:0.99995025 9:0.99989098 10:0.99953024 11:0.99915115 12:0.99905315 13:0.9988946 14:0.99554215 15:0.99709694 16:0.99573553 17:0.99480996 18:0.99703835 19:0.99761626 20:0.99023487 21:0.97597551 22:0.97039891 23:0.9643049 24:0.71614318 25:0.61862641 26:0.57207054 27:0.56141598 28:0.5639846 29:0.61672763 30:0.66735084 31:0.66654294 32:0.72139976 
-0.81227770570807756 1:-0.085912269 2:0.091806665 3:0.34596729 4:0.29544159 5:0.30535252 6:0.43598364 7:0.33771231 8:0.3080331 9:0.43995639 10:0.43850539 11:0.33363786 12:0.29002825 13:0.31927165 14:0.31947166 15:0.34693771 16:0.41824347 17:0.4912426 18:0.52248451 19:0.52590411 20:0.54642367 21:0.59924505 22:0.55277386 23:0.39299333 24:0.37164419 25:0.37761605 26:0.36920988 27:0.41454721 28:0.54447998 29:0.51953096 30:0.31078869 31:0.13388932 32:0.16820536 
1.6200413245038205 1:0.9731732 2:0.97456073 3:0.96871602 4:0.97667347 5:0.97376347 6:0.97882859 7:0.99001838 8:0.99196282 9:0.98862322 10:0.97260999 11:0.94204352 12:0.96228359 13:0.96054338 14:0.94910558 15:0.90159621 16:0.88967239 17:0.9155262 18:0.92911613 19:0.89923487 20:0.91591218 21:0.87292295 22:0.78104324 23:0.8131851 24:0.81462476 25:0.82430404 26:0.91915437 27:0.93040044 28:0.93375223 29:0.91798591 30:0.88815579 31:0.88398326 32:0.91912104 
-0.66193070363712803 1:0.15161061 2:0.22327017 3:0.40791195 4:0.39028192 5:0.27007081 6:0.36456143 7:0.49863444 8:0.42678159 9:0.37942646 10:0.37957062 11:0.32922276 12:0.34405134 13:0.4172998 14:0.45947959 15:0.40597957 16:0.36287269 17:0.40483999 18:0.50883021 19:0.48435228 20:0.51386913 21:0.58642476 22:0.50592446 23:0.43223779 24:0.38942826 25:0.39693674 26:0.36423307 27:0.36287286 28:0.46124675 29:0.41484273 30:0.21045322 31:0.1215759 32:0.24386307 
-1.1997121476655541 1:0.99840966 2:0.99651783 3:0.82490485 4:0.78779574 5:0.78711143 6:0.7799916 7:0.76462037 8:0.77626167 9:0.81112233 10:0.83273519 11:0.86973626 12:0.87792777 13:0.8728101 14:0.88162055 15:0.90246757 16:0.9222174 17:0.93612536 18:0.93225951 19:0.916679 20:0.91700821 21:0.91581081 22:0.94626862 23:0.97983236 24:0.9804526 25:0.98026857 26:0.98244144 27:0.98905223 28:0.99995833 29:0.99994978 30:0.9996705 31:0.99910459 32:0.99831593 
5 1:0.9253622 2:0.87528228 3:0.84635678 4:0.86356953 5:0.86451992 6:0.86365593 7:0.84601387 8:0.83281062 9:0.83525038 10:0.87296105 11:0.88925902 12:0.87380554 13:0.86171623 14:0.88536917 15:0.90960235 16:0.91469121 17:0.9158134 18:0.91998077 19:0.92091689 20:0.91942665 21:0.96107296 22:0.96007576 23:0.95736773 24:0.96863749 25:0.96748906 26:0.98129626 27:0.99692224 28:0.99995077 29:0.99990856 30:0.99980617 31:0.99977536 32:0.99978192 
-5 1:0.93011343 2:0.85141705 3:0.83908858 4:0.82335852 5:0.84309587 6:0.85173242 7:0.84736548 8:0.84476471 9:0.84091198 10:0.83866683 11:0.85335714 12:0.86107281 13:0.87678048 14:0.86738325 15:0.87544568 16:0.89744515 17:0.91377012 18:0.90801042 19:0.90051347 20:0.90992595 21:0.9110281 22:0.92693407 23:0.91942188 24:0.93267437 25:0.95766469 26:0.96666506 27:0.96587554 28:0.96888768 29:0.97970491 30:0.99785064 31:0.99867344 32:0.99802203 
-5 1:0.85269457 2:0.83843834 3:0.79937513 4:0.82114228 5:0.81388722 6:0.79072028 7:0.78622857 8:0.79650138 9:0.80599281 10:0.77620974 11:0.76839757 12:0.75861236 13:0.76820471 14:0.77804432 15:0.81228153 16:0.7795968 17:0.79130477 18:0.81776258 19:0.83066648 20:0.83963366 21:0.84618118 22:0.83314534 23:0.8171226 24:0.84850154 25:0.87010859 26:0.85798169 27:0.866927 28:0.92100756 29:0.91146758 30:0.87600428 31:0.87935096 32:0.86989789 
5 1:0.98516992 2:0.99472703 3:0.99392997 4:0.99567377 5:0.99352356 6:0.99385647 7:0.99367547 8:0.99085556 9:0.9889945 10:0.99380884 11:0.99357154 12:0.99103102 13:0.99625478 14:0.99603607 15:0.99219082 16:0.98951124 17:0.98766826 18:0.98958445 19:0.98312149 20:0.98853024 21:0.99424442 22:0.99214987 23:0.98891045 24:0.98835184 25:0.99222475 26:0.99232507 27:0.99398721 28:0.9953348 29:0.9895883 30:0.98251209 31:0.98288637 32:0.98099685 
-5 1:0.96184384 2:0.98901692 3:0.99789088 4:0.9993319 5:0.99958325 6:0.99959357 7:0.99937819 8:0.99940195 9:0.99829925 10:0.99907943 11:0.9984761 12:0.99764013 13:0.99759774 14:0.99835782 15:0.99873302 16:0.9988615 17:0.99775108 18:0.99900352 19:0.99833834 20:0.99595672 21:0.99824022 22:0.98962862 23:0.96591269 24:0.7031493 25:0.62530363 26:0.61608446 27:0.61685994 28:0.64097932 29:0.69646773 30:0.72088181 31:0.72721516 32:0.77366378 
4.2282177098201723 1:0.79621604 2:0.75662875 3:0.72824196 4:0.71874133 5:0.71186288 6:0.72209461 7:0.7223779 8:0.72515373 9:0.71626836 10:0.69768903 11:0.70013712 12:0.70008647 13:0.70910472 14:0.72328764 15:0.7084784 16:0.71674373 17:0.72105568 18:0.72072135 19:0.70843368 20:0.70356609 21:0.6968417 22:0.7066392 23:0.72698996 24:0.77796001 25:0.77736358 26:0.80578099 27:0.84279796 28:0.88812854 29:0.90202988 30:0.93659267 31:0.91947765 32:0.91234636 
-5 1:0.96853971 2:0.97690727 3:0.97540639 4:0.98141552 5:0.98088721 6:0.97975052 7:0.97733492 8:0.978981 9:0.98067168 10:0.9800606 11:0.98144487 12:0.98236353 13:0.98569604 14:0.98633329 15:0.97995643 16:0.96885742 17:0.97365523 18:0.98261643 19:0.98250704 20:0.98449661 21:0.98529259 22:0.97549612 23:0.95757423 24:0.96268211 25:0.96479766 26:0.95837685 27:0.95441267 28:0.94656695 29:0.92714533 30:0.89722276 31:0.89414595 32:0.89901401 
-0.93473221897046976 1:0.58433849 2:0.6571001 3:0.77559433 4:0.74304775 5:0.55640819 6:0.58669612 7:0.50415791 8:0.5506222 9:0.56325244 10:0.66034502 11:0.67392949 12:0.5979135 13:0.56827424 14:0.54575395 15:0.5935983 16:0.6968469 17:0.69013733 18:0.5500883 19:0.53399387 20:0.60720776 21:0.72229896 22:0.71056258 23:0.64912757 24:0.50917899 25:0.51323155 26:0.53971354 27:0.68660886 28:0.7268779 29:0.67544714 30:0.60039475 31:0.56727992 32:0.56488506 
-5 1:0.94075221 2:0.97123908 3:0.97447993 4:0.96870333 5:0.96715775 6:0.97521985 7:0.9834322 8:0.98272721 9:0.97641963 10:0.97127214 11:0.96711557 12:0.96951074 13:0.96528401 14:0.95583262 15:0.96622573 16:0.9585767 17:0.95589174 18:0.96653686 19:0.96048507 20:0.93908908 21:0.93455255 22:0.9297167 23:0.94143831 24:0.95479101 25:0.95841501 26:0.95816493 27:0.95864015 28:0.96566962 29:0.95065623 30:0.90737158 31:0.9052529 32:0.90312153 
5 1:0.96938633 2:0.9704821 3:0.97815888 4:0.97838841 5:0.97193375 6:0.96892335 7:0.97235668 8:0.97116275 9:0.96748739 10:0.96971505 11:0.96836273 12:0.96599811 13:0.97070295 14:0.97060142 15:0.96670876 16:0.96524943 17:0.97616702 18:0.97607977 19:0.97313766 20:0.97335262 21:0.98656703 22:0.98999678 23:0.9890652 24:0.99115603 25:0.99361321 26:0.99669433 27:0.99654844 28:0.99453533 29:0.98472295 30:0.96638776 31:0.95632926 32:0.95783012 
-1.2800955480667662 1:0.95020001 2:0.97668429 3:0.98550279 4:0.98805199 5:0.99400003 6:0.99637945 7:0.99844375 8:0.99750761 9:0.99858403 10:0.99623866 11:0.99667393 12:0.99646389 13:0.99610839 14:0.99502446 15:0.9961011 16:0.99437769 17:0.99257383 18:0.99470109 19:0.99293233 20:0.98697295 21:0.98374175 22:0.97176711 23:0.9738498 24:0.57151485 25:0.5136344 26:0.53333939 27:0.51692199 28:0.51024315 29:0.58664486 30:0.6344479 31:0.6193786 32:0.66664988 
4.9151107329526873 1:0.99986692 2:0.99971449 3:0.94708906 4:0.85604302 5:0.84919011 6:0.86851824 7:0.86275612 8:0.86419827 9:0.86752976 10:0.88388416 11:0.89522864 12:0.90687162 13:0.90984142 14:0.9220203 15:0.92924937 16:0.93356067 17:0.92733539 18:0.93935286 19:0.94217172 20:0.9574648 21:0.96503326 22:0.98127941 23:0.97809735 24:0.96714617 25:0.96111507 26:0.95950094 27:0.96377346 28:0.97970973 29:0.99609072 30:0.99961592 31:0.99967158 32:0.99955677 
0.81129013592642629 1:0.37860475 2:0.37079287 3:0.45073609 4:0.51043206 5:0.54191826 6:0.54288286 7:0.54363895 8:0.58645506 9:0.62918117 10:0.63924464 11:0.56703929 12:0.53827345 13:0.53724308 14:0.5342037 15:0.53900357 16:0.63694953 17:0.63276278 18:0.63462328 19:0.66343898 20:0.69760093 21:0.74385458 22:0.75769614 23:0.77847153 24:0.81629307 25:0.90196318 26:0.98823999 27:0.98994021 28:0.98990075 29:0.99308934 30:0.9990115 31:0.99887108 32:0.99837578 
-5 1:0.95129341 2:0.96110534 3:0.9645473 4:0.96544115 5:0.95707112 6:0.96560993 7:0.96884777 8:0.97036666 9:0.9671849 10:0.94824045 11:0.95855073 12:0.96681508 13:0.97466074 14:0.97682647 15:0.97338088 16:0.97291909 17:0.98284356 18:0.96865583 19:0.97204819 20:0.96860949 21:0.95307784 22:0.92372064 23:0.91455232 24:0.9265312 25:0.94731226 26:0.95600991 27:0.95128278 28:0.94932213 29:0.93581638 30:0.92550358 31:0.92970479 32:0.92382803 
-5 1:0.98010557 2:0.991094 3:0.99157969 4:0.99331919 5:0.99446532 6:0.99350392 7:0.99153282 8:0.99514529 9:0.99179771 10:0.99351631 11:0.98885633 12:0.97834354 13:0.97252986 14:0.97483065 15:0.98561405 16:0.99104424 17:0.99366062 18:0.99271297 19:0.99225327 20:0.99336402 21:0.99533993 22:0.99606564 23:0.99456755 24:0.99604925 25:0.99725977 26:0.9966115 27:0.99567469 28:0.99508819 29:0.98883967 30:0.97480017 31:0.96964839 32:0.96299236 
-5 1:0.83749882 2:0.86348922 3:0.87945541 4:0.85814673 5:0.8719527 6:0.87178803 7:0.87742481 8:0.8834463 9:0.88768481 10:0.89148165 11:0.89702716 12:0.9016296 13:0.91720518 14:0.92896108 15:0.93304856 16:0.93089833 17:0.9306701 18:0.9090756 19:0.90781123 20:0.89737557 21:0.88729733 22:0.91370272 23:0.91024751 24:0.89014617 25:0.89686675 26:0.91889119 27:0.93876385 28:0.93921892 29:0.93178205 30:0.90740144 31:0.88913091 32:0.890178 
3.7664139199180391 1:0.91306636 2:0.95747949 3:0.98503839 4:0.98501664 5:0.98614632 6:0.98216571 7:0.97395783 8:0.98227261 9:0.97574496 10:0.96645879 11:0.95370174 12:0.90641732 13:0.89892718 14:0.93236745 15:0.91837448 16:0.89809098 17:0.87913497 18:0.89068349 19:0.92179127 20:0.91392062 21:0.92174017 22:0.93046914 23:0.9008485 24:0.90392002 25:0.94726367 26:0.9509548 27:0.95834013 28:0.95794502 29:0.93655857 30:0.89197248 31:0.88456925 32:0.90852665 
-0.84904089266812099 1:0.8444389 2:0.93026018 3:0.93672847 4:0.92112031 5:0.93358064 6:0.92927833 7:0.92704133 8:0.9272836 9:0.87940422 10:0.77246454 11:0.74412969 12:0.77913179 13:0.78945151 14:0.8115858 15:0.81612077 16:0.78981313 17:0.78333057 18:0.80298293 19:0.77246472 20:0.7704731 21:0.88309356 22:0.8539546 23:0.75523469 24:0.69567731 25:0.70512785 26:0.75039236 27:0.79821225 28:0.82568605 29:0.74817216 30:0.63334451 31:0.61547975 32:0.67982259 
-0.6161627970293081 1:0.73093278 2:0.76997777 3:0.7295154 4:0.66464369 5:0.64924845 6:0.68064398 7:0.67837282 8:0.64963283 9:0.6317838 10:0.67747624 11:0.6973476 12:0.73569242 13:0.71439545 14:0.71242023 15:0.66501055 16:0.67523042 17:0.64059246 18:0.62279956 19:0.64771565 20:0.69300605 21:0.72041639 22:0.67312935 23:0.65434805 24:0.64153347 25:0.65573196 26:0.68592321 27:0.73201548 28:0.75241406 29:0.77135753 30:0.78468764 31:0.80235719 32:0.80217132 
-3.552481120168351 1:0.96043979 2:0.970973 3:0.98670062 4:0.98988787 5:0.99185638 6:0.99701838 7:0.99821076 8:0.99830858 9:0.9960925 10:0.99560102 11:0.99460008 12:0.99383166 13:0.99476105 14:0.99374529 15:0.98915893 16:0.98034476 17:0.97932794 18:0.96651584 19:0.95399381 20:0.9282284 21:0.88225587 22:0.82149623 23:0.76670303 24:0.63559065 25:0.62998684 26:0.62006952 27:0.59267169 28:0.57906764 29:0.62978319 30:0.66711185 31:0.66225855 32:0.69332525 
0.98860370619966198 1:0.6815665 2:0.78918833 3:0.81867569 4:0.80193449 5:0.78493784 6:0.80306639 7:0.79755 8:0.79251772 9:0.77965373 10:0.77501559 11:0.78837967 12:0.76464673 13:0.75310116 14:0.77059679 15:0.77674961 16:0.77255525 17:0.78345087 18:0.79883269 19:0.81643867 20:0.80680385 21:0.77489688 22:0.78810033 23:0.81700674 24:0.84305519 25:0.82038115 26:0.84080414 27:0.85250043 28:0.86203386 29:0.81372025 30:0.70422006 31:0.69718172 32:0.65893882 
-5 1:0.98411083 2:0.98306794 3:0.9822736 4:0.9791109 5:0.98448096 6:0.97898211 7:0.9838509 8:0.98647829 9:0.98959157 10:0.99598989 11:0.99830849 12:0.9972398 13:0.99921993 14:0.99926982 15:0.99931335 16:0.99920684 17:0.99824074 18:0.99664453 19:0.99717242 20:0.99811146 21:0.99794592 22:0.99681676 23:0.98939245 24:0.99445925 25:0.9967689 26:0.99762052 27:0.99820751 28:0.99931124 29:0.99897861 30:0.99840138 31:0.99847526 32:0.99842088 
5 1:0.77209581 2:0.84872705 3:0.93414123 4:0.95637349 5:0.94103634 6:0.93659449 7:0.93086628 8:0.91923 9:0.93428004 10:0.92519147 11:0.91283514 12:0.91310453 13:0.90187366 14:0.91085122 15:0.92089278 16:0.92243807 17:0.91046406 18:0.93225223 19:0.92929178 20:0.93140629 21:0.94222772 22:0.93988409 23:0.90896425 24:0.87707003 25:0.89949379 26:0.90195656 27:0.90610121 28:0.91382921 29:0.88060134 30:0.82062432 31:0.81533383 32:0.80709268 
5 1:0.91135882 2:0.87132188 3:0.86616243 4:0.86562566 5:0.8650378 6:0.85636849 7:0.858137 8:0.86004477 9:0.85742973 10:0.8848529 11:0.90782626 12:0.90624421 13:0.88676852 14:0.89950155 15:0.88923103 16:0.90749808 17:0.91106023 18:0.88959377 19:0.88868481 20:0.88643756 21:0.89710784 22:0.94878538 23:0.95030281 24:0.95570634 25:0.95733142 26:0.97795623 27:0.98295798 28:0.99565669 29:0.99820258 30:0.99948942 31:0.99948245 32:0.99958446 
-0.68075947075070953 1:0.58538674 2:0.65592227 3:0.60230956 4:0.45454076 5:0.47667493 6:0.45351099 7:0.40390949 8:0.35886184 9:0.37971862 10:0.45872523 11:0.43909055 12:0.29954438 13:0.29658043 14:0.28227515 15:0.33767546 16:0.42000668 17:0.45057049 18:0.4435123 19:0.40976098 20:0.41505236 21:0.36312248 22:0.4160016 23:0.41437648 24:0.41918787 25:0.47280786 26:0.59581146 27:0.66178937 28:0.69325079 29:0.65402419 30:0.52290037 31:0.47557321 32:0.46395783 
-0.26630021546706073 1:-0.018925395 2:-0.1633503 3:0.15399012 4:0.41553102 5:0.43925184 6:0.44622091 7:0.40257458 8:0.40471229 9:0.42443292 10:0.39192259 11:0.37653528 12:0.36176404 13:0.33123858 14:0.35803412 15:0.40766993 16:0.48324456 17:0.49001749 18:0.4657596 19:0.46676989 20:0.51129875 21:0.50858934 22:0.49373158 23:0.48568627 24:0.3579306 25:0.31971698 26:0.40241644 27:0.47291348 28:0.51140851 29:0.50043174 30:0.46960455 31:0.48267808 32:0.4852463 
5 1:0.95885001 2:0.98131605 3:0.99451079 4:0.994002 5:0.99304594 6:0.99733104 7:0.99853461 8:0.99811196 9:0.99780004 10:0.99727869 11:0.99569695 12:0.99697561 13:0.99718936 14:0.99813642 15:0.99881438 16:0.99875798 17:0.99935152 18:0.99934952 19:0.99799714 20:0.9943625 21:0.9980019 22:0.99799474 23:0.98105833 24:0.50039876 25:0.45039279 26:0.49476382 27:0.48632117 28:0.46222641 29:0.49228871 30:0.52594126 31:0.51893921 32:0.55555469 
5 1:0.92632037 2:0.95663284 3:0.98405759 4:0.98871232 5:0.98547248 6:0.9860473 7:0.98663068 8:0.98615732 9:0.98697298 10:0.98672973 11:0.98513081 12:0.97835854 13:0.98453103 14:0.98713436 15:0.9874092 16:0.98481026 17:0.97609759 18:0.97854702 19:0.98018513 20:0.98001675 21:0.98703563 22:0.983468 23:0.96675567 24:0.96324285 25:0.97150157 26:0.97218715 27:0.96513039 28:0.9712677 29:0.96567589 30:0.95020147 31:0.93821628 32:0.92976364 
5 1:0.99992205 2:0.9996678 3:0.99650045 4:0.99864518 5:0.99672497 6:0.9975387 7:0.99545176 8:0.99937798 9:0.99943615 10:0.99984316 11:0.99974273 12:0.99994666 13:0.99989343 14:0.99997581 15:0.99998376 16:0.99974035 17:0.99751031 18:0.999689 19:0.99996718 20:0.99933311 21:0.99983579 22:0.99997028 23:0.99986209 24:0.99996433 25:0.99995874 26:0.99994979 27:0.99997309 28:0.99994993 29:0.99992319 30:0.9998799 31:0.99983717 32:0.99979786 
-0.8616955756447453 1:0.84146735 2:0.92781669 3:0.96774279 4:0.97770409 5:0.97800466 6:0.97705477 7:0.98150766 8:0.97612162 9:0.9768132 10:0.96646066 11:0.94166152 12:0.89118797 13:0.83110257 14:0.7927932 15:0.81152428 16:0.7836314 17:0.74288204 18:0.75489652 19:0.69556161 20:0.68940035 21:0.67133925 22:0.6318698 23:0.63426055 24:0.36587456 25:0.40788476 26:0.61079326 27:0.59402806 28:0.52073244 29:0.58311288 30:0.63061908 31:0.62087093 32:0.65395014 
-5 1:0.97957721 2:0.96424412 3:0.96134488 4:0.96287125 5:0.96115798 6:0.95642065 7:0.9499229 8:0.95814024 9:0.96937829 10:0.97445698 11:0.97914639 12:0.97557434 13:0.98284944 14:0.98020357 15:0.97350456 16:0.98095851 17:0.97792137 18:0.97074136 19:0.96685481 20:0.97899626 21:0.97683677 22:0.97862891 23:0.98307568 24:0.99582242 25:0.99515186 26:0.99700046 27:0.99857848 28:0.999554 29:0.99954849 30:0.99854824 31:0.99860109 32:0.99861182 
5 1:0.96674681 2:0.97700264 3:0.97907102 4:0.97413889 5:0.97898294 6:0.97165502 7:0.96739708 8:0.96572839 9:0.96751342 10:0.9677986 11:0.96405757 12:0.96300978 13:0.97120379 14:0.96759766 15:0.96861656 16:0.9704406 17:0.97109615 18:0.96985094 19:0.97473125 20:0.97420293 21:0.9762496 22:0.97318346 23:0.96039432 24:0.96459033 25:0.96019915 26:0.95579606 27:0.95685644 28:0.95652517 29:0.94846884 30:0.93682156 31:0.93748476 32:0.93803293 
-5 1:0.99712116 2:0.99524591 3:0.99126428 4:0.9884375 5:0.99619184 6:0.99677449 7:0.99581731 8:0.99618884 9:0.99765284 10:0.99606812 11:0.9900937 12:0.99577562 13:0.99697902 14:0.9969167 15:0.9961065 16:0.99369721 17:0.99742694 18:0.99310435 19:0.99687673 20:0.99805007 21:0.99726809 22:0.99806703 23:0.99872993 24:0.99530281 25:0.99373276 26:0.9977653 27:0.99775314 28:0.99540824 29:0.99516633 30:0.99344977 31:0.99489862 32:0.99487356 
5 1:0.96433947 2:0.90952268 3:0.88022824 4:0.87565112 5:0.87767584 6:0.86423155 7:0.85690927 8:0.85758016 9:0.85891891 10:0.85889701 11:0.87075564 12:0.8946568 13:0.90362898 14:0.88211748 15:0.85690072 16:0.83599104 17:0.82699688 18:0.85178439 19:0.83888616 20:0.82177698 21:0.83244789 22:0.8497788 23:0.87897567 24:0.89928649 25:0.89875105 26:0.90543408 27:0.92668003 28:0.95280063 29:0.95957018 30:0.99761965 31:0.99715412 32:0.99786191 
5 1:0.96636856 2:0.97582718 3:0.98894263 4:0.98746718 5:0.98490424 6:0.98662481 7:0.9909366 8:0.99350896 9:0.99288625 10:0.98397608 11:0.97581844 12:0.96336384 13:0.96048353 14:0.96611501 15:0.97182616 16:0.95728503 17:0.94428872 18:0.95902661 19:0.96296655 20:0.96221601 21:0.96818929 22:0.96746453 23:0.96045916 24:0.96766577 25:0.98941817 26:0.99339899 27:0.98942605 28:0.98516218 29:0.97749641 30:0.92697621 31:0.91184084 32:0.92056792 
5 1:0.99711857 2:0.9961096 3:0.99395576 4:0.9974788 5:0.9979604 6:0.99632802 7:0.99824465 8:0.99970333 9:0.99972948 10:0.99928577 11:0.99969497 12:0.99911784 13:0.99938776 14:0.99958496 15:0.99965296 16:0.99964122 17:0.9996743 18:0.99952092 19:0.99618292 20:0.99768646 21:0.99937553 22:0.99988811 23:0.99966032 24:0.99966631 25:0.99979304 26:0.99993484 27:0.99991495 28:0.99989419 29:0.99982579 30:0.99638414 31:0.99506905 32:0.99463009 
-5 1:0.94669005 2:0.98414634 3:0.99734932 4:0.99750011 5:0.9954732 6:0.99817754 7:0.99773589 8:0.99512853 9:0.99714005 10:0.99428706 11:0.9889816 12:0.97974154 13:0.97923969 14:0.9833861 15:0.9798004 16:0.96952677 17:0.9593961 18:0.96161267 19:0.93960777 20:0.92562087 21:0.90028653 22:0.86713194 23:0.84722151 24:0.5083635 25:0.48468595 26:0.54624109 27:0.54534028 28:0.52869263 29:0.60509727 30:0.67473942 31:0.67913465 32:0.71805006 
0.95265351032339762 1:0.94265575 2:0.81917007 3:0.74794763 4:0.736469 5:0.73532404 6:0.73950098 7:0.73277431 8:0.7113719 9:0.70352242 10:0.72102871 11:0.72558455 12:0.73242505 13:0.75797269 14:0.73804681 15:0.7272632 16:0.71967868 17:0.73635275 18:0.76908186 19:0.77263096 20:0.79780023 21:0.80204024 22:0.8307293 23:0.82265554 24:0.82501318 25:0.8287869 26:0.85369259 27:0.88514704 28:0.92278196 29:0.94251339 30:0.99894087 31:0.99847135 32:0.9984382 
-2.9807658896720843 1:0.77019568 2:0.83855881 3:0.93117459 4:0.95503434 5:0.93504873 6:0.92378585 7:0.9114461 8:0.90048482 9:0.90639239 10:0.91627963 11:0.90602059 12:0.9059819 13:0.89997753 14:0.91940099 15:0.91378056 16:0.92290277 17:0.92154959 18:0.92907671 19:0.92695279 20:0.93155467 21:0.93979004 22:0.94453772 23:0.9104047 24:0.87156659 25:0.87664542 26:0.88486474 27:0.87401303 28:0.8964277 29:0.85368069 30:0.77215976 31:0.73729993 32:0.7267316 
-0.36562332159952693 1:0.49839647 2:0.52489452 3:0.54074451 4:0.55054087 5:0.56936107 6:0.57910828 7:0.61360873 8:0.65647188 9:0.63244517 10:0.6071718 11:0.57273712 12:0.57172027 13:0.57104296 14:0.57149702 15:0.5748676 16:0.62691739 17:0.61368063 18:0.63433428 19:0.64964473 20:0.67501905 21:0.72426359 22:0.71109469 23:0.70008369 24:0.7186093 25:0.94977533 26:0.96785325 27:0.97488717 28:0.9824699 29:0.99975445 30:0.99947425 31:0.99949342 32:0.99955603 
5 1:0.9988891 2:0.999572 3:0.99951422 4:0.99960151 5:0.9993041 6:0.99941647 7:0.99925803 8:0.99906245 9:0.99933931 10:0.99933334 11:0.99889029 12:0.99957879 13:0.99957031 14:0.99837281 15:0.99849986 16:0.99692997 17:0.99851703 18:0.99524617 19:0.99663573 20:0.98680759 21:0.98123691 22:0.96587523 23:0.95823708 24:0.98411578 25:0.99549988 26:0.99756117 27:0.99818291 28:0.99545633 29:0.98951468 30:0.97896858 31:0.97635323 32:0.98382492 
5 1:0.95716567 2:0.9865515 3:0.9941675 4:0.99591659 5:0.99678613 6:0.99729266 7:0.99856139 8:0.99876788 9:0.9977881 10:0.99710156 11:0.99822293 12:0.99790256 13:0.99643326 14:0.99672524 15:0.99888085 16:0.9991647 17:0.99922069 18:0.99935865 19:0.99890713 20:0.99684676 21:0.99740847 22:0.99599852 23:0.97084755 24:0.62283244 25:0.55820744 26:0.58991954 27:0.55654918 28:0.5508179 29:0.59906173 30:0.64957915 31:0.6417885 32:0.6669587 
-5 1:0.94244886 2:0.97063481 3:0.9720525 4:0.96970998 5:0.96264277 6:0.95291253 7:0.95232474 8:0.96605632 9:0.97179414 10:0.97006043 11:0.9726928 12:0.96716484 13:0.97192198 14:0.98006742 15:0.9816096 16:0.98332113 17:0.97683433 18:0.9743888 19:0.96973013 20:0.97261781 21:0.96397241 22:0.97088509 23:0.96265526 24:0.95247136 25:0.95806188 26:0.95852769 27:0.95961726 28:0.96485965 29:0.95808654 30:0.93243053 31:0.93904248 32:0.9382811 
-1.0020465536949639 1:0.003633926 2:0.11508519 3:0.37726917 4:0.55087814 5:0.5720871 6:0.48620503 7:0.48020038 8:0.43726806 9:0.41973304 10:0.42969559 11:0.43898775 12:0.42675843 13:0.45809587 14:0.42530122 15:0.48903261 16:0.56157568 17:0.55026682 18:0.47702421 19:0.5523416 20:0.58089071 21:0.6130096 22:0.61699225 23:0.58642417 24:0.65001989 25:0.55747495 26:0.50478202 27:0.5264713 28:0.75624267 29:0.70995094 30:0.31412077 31:0.22420367 32:0.403247 
1.6025474769616515 1:0.48644564 2:0.53441316 3:0.55908886 4:0.57633998 5:0.59654025 6:0.65332671 7:0.6726988 8:0.65916622 9:0.65696307 10:0.67375351 11:0.72034809 12:0.79727663 13:0.80905267 14:0.793106 15:0.78796679 16:0.83142732 17:0.86531709 18:0.88529944 19:0.95173206 20:0.97585864 21:0.99740122 22:0.99981756 23:0.99991094 24:0.99996463 25:0.99980815 26:0.99990826 27:0.99833464 28:0.99596137 29:0.99862955 30:0.99947842 31:0.9996083 32:0.99958307 
-1.0257895747207451 1:0.95564359 2:0.94850701 3:0.9394984 4:0.93370445 5:0.95324394 6:0.95322368 7:0.93517853 8:0.93212142 9:0.92334877 10:0.93401528 11:0.94198444 12:0.93896245 13:0.94082983 14:0.939033 15:0.94866937 16:0.961782 17:0.96776766 18:0.96631612 19:0.96832077 20:0.96672796 21:0.96313899 22:0.95145918 23:0.95785332 24:0.96002157 25:0.97050158 26:0.97389163 27:0.98325958 28:0.98199466 29:0.97618316 30:0.96638004 31:0.96008188 32:0.9590345 
-5 1:0.97275402 2:0.97309252 3:0.96576359 4:0.96729488 5:0.97784902 6:0.98575743 7:0.98238503 8:0.98487261 9:0.98764479 10:0.9854668 11:0.98323921 12:0.98082464 13:0.98070311 14:0.97556178 15:0.97450372 16:0.98558513 17:0.98699306 18:0.9804133 19:0.98708908 20:0.99290176 21:0.98991309 22:0.98478119 23:0.98902203 24:0.98735692 25:0.98759146 26:0.98927637 27:0.98749685 28:0.98853374 29:0.98472087 30:0.96761716 31:0.9632128 32:0.9603627 
-0.32668796042399084 1:0.68559353 2:0.5715711 3:0.55547867 4:0.55561892 5:0.55183638 6:0.56991361 7:0.58109828 8:0.57337884 9:0.57078556 10:0.57094897 11:0.58268367 12:0.58934776 13:0.58917925 14:0.59167494 15:0.59230512 16:0.596587 17:0.61226503 18:0.61054999 19:0.60106696 20:0.60321044 21:0.6027134 22:0.66806889 23:0.73609712 24:0.77116374 25:0.79544703 26:0.82093037 27:0.86913062 28:0.91360582 29:0.97465831 30:0.9992528 31:0.99919494 32:0.99919225 
-3.1911032802180066 1:0.90250473 2:0.95516322 3:0.96592908 4:0.97305294 5:0.97908244 6:0.97534378 7:0.97750795 8:0.9836508 9:0.9721228 10:0.97071053 11:0.97526418 12:0.96552682 13:0.96140706 14:0.97836442 15:0.97850401 16:0.97460037 17:0.97301885 18:0.97989766 19:0.97451496 20:0.97250956 21:0.95400345 22:0.94235927 23:0.90745099 24:0.5037098 25:0.52151451 26:0.58673352 27:0.55934255 28:0.52811279 29:0.55716083 30:0.5743489 31:0.55785323 32:0.57640571 
-5 1:0.95816444 2:0.94326909 3:0.93230389 4:0.91481828 5:0.92112547 6:0.92965476 7:0.93864989 8:0.92760806 9:0.94228203 10:0.94527068 11:0.95620671 12:0.96532771 13:0.96109886 14:0.96320521 15:0.97052274 16:0.96898061 17:0.97310168 18:0.97548094 19:0.97359365 20:0.96689189 21:0.96320248 22:0.96245173 23:0.96277004 24:0.96573592 25:0.9680007 26:0.96632741 27:0.96529367 28:0.97421738 29:0.97974636 30:0.99422377 31:0.9937515 32:0.99469218 
0.66047950098990005 1:-0.10924272 2:-0.11789111 3:0.16488328 4:0.37600562 5:0.39007158 6:0.39610706 7:0.43616289 8:0.43668857 9:0.46039052 10:0.44036524 11:0.39571767 12:0.37311352 13:0.33932875 14:0.3764054 15:0.49323029 16:0.54745283 17:0.54443028 18:0.54935678 19:0.55934153 20:0.55576139 21:0.55608056 22:0.54896441 23:0.53550051 24:0.53881067 25:0.55047992 26:0.55034274 27:0.53119117 28:0.50879021 29:0.43742546 30:0.32997121 31:0.31701982 32:0.28589992 
0.36545235780551211 1:0.58337606 2:0.63183187 3:0.59670613 4:0.52756883 5:0.53110821 6:0.55978316 7:0.53796892 8:0.48839977 9:0.53797958 10:0.51746741 11:0.50066484 12:0.47363817 13:0.50499936 14:0.54320673 15:0.58240501 16:0.60857488 17:0.59754572 18:0.59995407 19:0.59337221 20:0.57265175 21:0.60004553 22:0.64281318 23:0.59670316 24:0.57098889 25:0.58750709 26:0.61312414 27:0.62860223 28:0.64460384 29:0.62200609 30:0.6837754 31:0.7096744 32:0.70511273 
-3.4870981654189128 1:0.92548363 2:0.93763183 3:0.93218592 4:0.91733512 5:0.90507421 6:0.90828037 7:0.91504482 8:0.90049935 9:0.8953422 10:0.91870426 11:0.92003621 12:0.91456391 13:0.94511677 14:0.94785012 15:0.91850236 16:0.91368284 17:0.92485568 18:0.93799253 19:0.92702796 20:0.94500494 21:0.95026518 22:0.96345605 23:0.95927575 24:0.93768223 25:0.93617927 26:0.94049103 27:0.94972413 28:0.95637326 29:0.95516248 30:0.94173546 31:0.93298904 32:0.92865517 
-5 1:0.91319239 2:0.95060393 3:0.98703509 4:0.99479894 5:0.99486707 6:0.99565752 7:0.99857873 8:0.9986174 9:0.99815346 10:0.99692684 11:0.99267657 12:0.98909349 13:0.98808281 14:0.99246406 15:0.99187288 16:0.98485336 17:0.9819878 18:0.98905565 19:0.99385153 20:0.9871145 21:0.98764182 22:0.95590139 23:0.8819032 24:0.58714292 25:0.59679849 26:0.59878167 27:0.55363072 28:0.54835664 29:0.59686008 30:0.63772279 31:0.64825773 32:0.6895989 
-5 1:0.98232454 2:0.99090678 3:0.99565763 4:0.99605248 5:0.9954001 6:0.99716707 7:0.99637529 8:0.98648166 9:0.98557112 10:0.99264253 11:0.98749263 12:0.97534764 13:0.98397558 14:0.99150653 15:0.99338873 16:0.99259546 17:0.99012011 18:0.99459671 19:0.99666002 20:0.99453998 21:0.9914419 22:0.99077642 23:0.97882319 24:0.97170583 25:0.97308302 26:0.97487532 27:0.98144152 28:0.97936855 29:0.96774914 30:0.95641056 31:0.94279859 32:0.94154766 
1.9774005916096022 1:0.99555376 2:0.81316899 3:0.62635466 4:0.57106444 5:0.57098597 6:0.57046441 7:0.56982764 8:0.57108597 9:0.56883277 10:0.61784806 11:0.67419023 12:0.71429182 13:0.7144468 14:0.70933484 15:0.72535541 16:0.77033727 17:0.86454104 18:0.89502401 19:0.90633026 20:0.95961579 21:0.97571472 22:0.97387358 23:0.97036927 24:0.97840463 25:0.94580644 26:0.94074598 27:0.96448015 28:0.99796867 29:0.99973088 30:0.99949976 31:0.99977074 32:0.99969884 
5 1:0.97661329 2:0.97855875 3:0.98023912 4:0.98356597 5:0.98307453 6:0.97960343 7:0.97860167 8:0.98113536 9:0.98437584 10:0.98382287 11:0.97828797 12:0.98204006 13:0.98098724 14:0.9888957 15:0.99170018 16:0.99161978 17:0.99307516 18:0.99333541 19:0.99241787 20:0.99145278 21:0.99128636 22:0.99145423 23:0.991667 24:0.99189348 25:0.99311263 26:0.99310786 27:0.99239102 28:0.99164206 29:0.9892563 30:0.98320271 31:0.97836079 32:0.97600311 
0.43733428705749466 1:0.43707313 2:0.44454373 3:0.47535695 4:0.49039805 5:0.49107017 6:0.50548527 7:0.4915003 8:0.49830518 9:0.52252678 10:0.51373853 11:0.51413623 12:0.52077032 13:0.51883468 14:0.51839032 15:0.54137689 16:0.52772356 17:0.51473236 18:0.52059198 19:0.56592607 20:0.60721949 21:0.66501348 22:0.75667189 23:0.7979098 24:0.77574288 25:0.76173103 26:0.72065793 27:0.70960637 28:0.75446713 29:0.78641313 30:0.85986717 31:0.90597911 32:0.9168298 
-5 1:0.97087742 2:0.96395797 3:0.95883748 4:0.95525169 5:0.95544049 6:0.96050115 7:0.96169704 8:0.95837363 9:0.95834434 10:0.96199497 11:0.96675906 12:0.95911945 13:0.94875495 14:0.96099763 15:0.96810046 16:0.96658947 17:0.97364918 18:0.97427785 19:0.97037996 20:0.96971254 21:0.96647014 22:0.9671589 23:0.97705138 24:0.9829205 25:0.97313865 26:0.97502226 27:0.98700268 28:0.99713648 29:0.99799066 30:0.99533502 31:0.99552953 32:0.99627619 
-1.2374473250274072 1:0.88434917 2:0.91024766 3:0.9164152 4:0.93309747 5:0.94852415 6:0.96361118 7:0.9663396 8:0.97135115 9:0.95487254 10:0.9278648 11:0.91321701 12:0.92483492 13:0.96338794 14:0.97708895 15:0.96906402 16:0.94288968 17:0.95250612 18:0.94052915 19:0.88220236 20:0.8145355 21:0.72437386 22:0.63959191 23:0.67173064 24:0.50746347 25:0.40802171 26:0.5043589 27:0.56705446 28:0.51936824 29:0.55495021 30:0.58242921 31:0.58945755 32:0.63002412 
4.7579467794015988 1:0.8550002 2:0.87937186 3:0.84396014 4:0.81541669 5:0.81692595 6:0.8190139 7:0.81335653 8:0.78367748 9:0.77539957 10:0.77913279 11:0.79751852 12:0.79152693 13:0.80644633 14:0.83675944 15:0.83056968 16:0.8621444 17:0.86702121 18:0.88811801 19:0.87743671 20:0.84245788 21:0.84821271 22:0.84694249 23:0.83201489 24:0.82654602 25:0.83560926 26:0.88797027 27:0.88260369 28:0.88243281 29:0.89153143 30:0.86701319 31:0.85005864 32:0.84215616 
0.099677972811971327 1:-0.13112178 2:-0.24798193 3:-0.19008387 4:0.18799356 5:0.39898182 6:0.38682179 7:0.45184969 8:0.48138922 9:0.53005823 10:0.51256867 11:0.37722861 12:0.39070638 13:0.3751156 14:0.28869804 15:0.34981625 16:0.43985972 17:0.45185675 18:0.44330473 19:0.50628992 20:0.5039377 21:0.50409229 22:0.50577855 23:0.45642402 24:0.33903641 25:0.36992215 26:0.40030406 27:0.39425314 28:0.39966244 29:0.33707066 30:0.23611638 31:0.22715439 32:0.21540868 
1.8929232764673163 1:0.86875967 2:0.94018596 3:0.9928023 4:0.99776787 5:0.99785431 6:0.99718509 7:0.99451857 8:0.99368208 9:0.99514369 10:0.99526178 11:0.98626497 12:0.98105585 13:0.9664159 14:0.98016266 15:0.98760646 16:0.97548572 17:0.94632959 18:0.94548721 19:0.94733088 20:0.96017418 21:0.96897254 22:0.94953707 23:0.86987004 24:0.80350845 25:0.87069715 26:0.90524735 27:0.92329264 28:0.93791295 29:0.9094614 30:0.85812705 31:0.8496143 32:0.88914207 
-3.5090757825207564 1:0.81437312 2:0.79764144 3:0.80063654 4:0.81781229 5:0.81764288 6:0.80818369 7:0.80061486 8:0.7997495 9:0.80529804 10:0.82823118 11:0.84007016 12:0.85588937 13:0.86632466 14:0.87586616 15:0.88392677 16:0.89457029 17:0.90761545 18:0.96609597 19:0.96507356 20:0.96357008 21:0.98060318 22:0.99830014 23:0.99956713 24:0.99949332 25:0.99984111 26:0.9998045 27:0.99992574 28:0.99989343 29:0.99986168 30:0.99977831 31:0.99966896 32:0.99968472 
-5 1:0.99258495 2:0.99371584 3:0.98646073 4:0.98065351 5:0.98164336 6:0.98191486 7:0.97434332 8:0.98793862 9:0.99074906 10:0.99403609 11:0.97904448 12:0.97747143 13:0.98984575 14:0.98802161 15:0.98697942 16:0.98287208 17:0.98726121 18:0.99502815 19:0.99335879 20:0.98191724 21:0.98739061 22:0.98471842 23:0.97961108 24:0.97730198 25:0.982762 26:0.98861062 27:0.98749958 28:0.98365099 29:0.97597827 30:0.96243062 31:0.95822823 32:0.94898581 
2.3903161362194516 1:0.97524255 2:0.99476471 3:0.99765729 4:0.99652602 5:0.9990819 6:0.99962151 7:0.99974835 8:0.99959787 9:0.99941011 10:0.99965294 11:0.99958849 12:0.99964351 13:0.99972043 14:0.99978069 15:0.99977916 16:0.99929972 17:0.99918928 18:0.99935935 19:0.99864255 20:0.99866272 21:0.99873398 22:0.99724319 23:0.98329791 24:0.74428366 25:0.68800274 26:0.62265633 27:0.61461947 28:0.61694734 29:0.66307992 30:0.69771655 31:0.69966758 32:0.74790728 
-5 1:0.97376457 2:0.98467163 3:0.99460884 4:0.99833885 5:0.9971791 6:0.99768647 7:0.99794917 8:0.99932386 9:0.9994214 10:0.99952502 11:0.99894774 12:0.99841621 13:0.99303821 14:0.99092223 15:0.99947231 16:0.99901943 17:0.99851534 18:0.99947837 19:0.99963085 20:0.99926252 21:0.99807614 22:0.9970804 23:0.9954889 24:0.99179525 25:0.99146549 26:0.99193727 27:0.99287244 28:0.99400627 29:0.99118611 30:0.98315788 31:0.98440361 32:0.98549549 
-1.6651352352466142 1:0.52807324 2:0.52975548 3:0.53169815 4:0.53960492 5:0.56072361 6:0.62756613 7:0.67874326 8:0.67035916 9:0.649372 10:0.6437973 11:0.66608974 12:0.73450275 13:0.74225617 14:0.73074569 15:0.73854947 16:0.79412879 17:0.81217823 18:0.85337824 19:0.92068457 20:0.96180245 21:0.98141456 22:0.98325361 23:0.98423109 24:0.98310289 25:0.98264914 26:0.97997044 27:0.98022579 28:0.97984365 29:0.98206766 30:0.98816482 31:0.99967296 32:0.99949201 
-5 1:0.89620716 2:0.86246213 3:0.82436838 4:0.79504782 5:0.79462681 6:0.7969149 7:0.79732646 8:0.78749731 9:0.79666279 10:0.81492951 11:0.81674431 12:0.8130741 13:0.8275658 14:0.84290512 15:0.80528695 16:0.78289498 17:0.78581979 18:0.8190817 19:0.80937888 20:0.79448767 21:0.81959737 22:0.84515058 23:0.8684496 24:0.89484937 25:0.90778165 26:0.90579091 27:0.90896309 28:0.91958556 29:0.93206285 30:0.9540947 31:0.96850573 32:0.96416753 
5 1:0.99968866 2:0.99983807 3:0.99978657 4:0.99935673 5:0.99917163 6:0.99947671 7:0.99978942 8:0.99900685 9:0.99736052 10:0.99886035 11:0.99974938 12:0.99973092 13:0.99981602 14:0.99925835 15:0.99934545 16:0.99992496 17:0.99992503 18:0.99960334 19:0.99959067 20:0.99956743 21:0.99976139 22:0.99986401 23:0.99995528 24:0.99981776 25:0.99977291 26:0.99991695 27:0.99988715 28:0.99995445 29:0.99992318 30:0.99979347 31:0.99952199 32:0.99977734 
-0.53173436176870981 1:0.59418122 2:0.72864092 3:0.88372507 4:0.92221114 5:0.91804345 6:0.91148775 7:0.91835471 8:0.91451642 9:0.90810136 10:0.89966795 11:0.84426338 12:0.81198056 13:0.80987611 14:0.83919951 15:0.85161079 16:0.84656718 17:0.83704103 18:0.80072067 19:0.76727714 20:0.74749527 21:0.82739757 22:0.81090417 23:0.73400708 24:0.62200904 25:0.62263326 26:0.68031345 27:0.68726077 28:0.68395387 29:0.62750498 30:0.55425369 31:0.52455116 32:0.55748204 
1.6005429636487205 1:0.838964 2:0.91634412 3:0.94258657 4:0.94697796 5:0.96031647 6:0.96404737 7:0.9481482 8:0.93340746 9:0.89867266 10:0.83214758 11:0.80501374 12:0.77767444 13:0.80070783 14:0.76143746 15:0.7715432 16:0.83400581 17:0.81301232 18:0.83148502 19:0.85635341 20:0.85183518 21:0.86121411 22:0.82496321 23:0.76611881 24:0.78915859 25:0.83742889 26:0.87280745 27:0.86181388 28:0.87072094 29:0.82733766 30:0.72675867 31:0.70738765 32:0.76634888 
5 1:0.90987339 2:0.97603572 3:0.96625861 4:0.95476971 5:0.95683557 6:0.95744786 7:0.9507362 8:0.96119308 9:0.96247369 10:0.94861186 11:0.94369442 12:0.94086816 13:0.95239582 14:0.96355999 15:0.97091149 16:0.95604631 17:0.94836427 18:0.95175766 19:0.94856883 20:0.94393903 21:0.94671339 22:0.94839111 23:0.924678 24:0.91723068 25:0.92317374 26:0.91403595 27:0.91596788 28:0.93304774 29:0.90889991 30:0.84569282 31:0.82145657 32:0.80597034 
5 1:0.96601833 2:0.98549211 3:0.98764403 4:0.98633708 5:0.99518089 6:0.99945877 7:0.9995838 8:0.99889849 9:0.99758031 10:0.99744076 11:0.99085076 12:0.9931908 13:0.99490022 14:0.98912228 15:0.98446437 16:0.98693851 17:0.99046482 18:0.97249982 19:0.96062629 20:0.92162395 21:0.84488244 22:0.79118909 23:0.81375564 24:0.60679074 25:0.49385875 26:0.52285376 27:0.56176617 28:0.56989477 29:0.60792447 30:0.6213349 31:0.63229949 32:0.67558298 
-3.2511941022529101 1:0.96148765 2:0.98267638 3:0.98270543 4:0.98778852 5:0.99550239 6:0.99897956 7:0.99961771 8:0.99929754 9:0.9983511 10:0.99721627 11:0.99577566 12:0.9962769 13:0.99820093 14:0.99726758 15:0.99031165 16:0.99196041 17:0.99397454 18:0.99333556 19:0.984665 20:0.95334074 21:0.90138507 22:0.79316257 23:0.79966122 24:0.64128095 25:0.51221019 26:0.52107035 27:0.55503264 28:0.56250441 29:0.61193313 30:0.64022652 31:0.64446841 32:0.67962749 
-5 1:0.94705322 2:0.96649293 3:0.96377005 4:0.93656486 5:0.95556636 6:0.97841696 7:0.98491036 8:0.98876143 9:0.98651989 10:0.98610008 11:0.98491677 12:0.98167864 13:0.98230802 14:0.97119131 15:0.95882068 16:0.95554131 17:0.96281888 18:0.97500179 19:0.96318416 20:0.95196675 21:0.92415541 22:0.90383492 23:0.91412477 24:0.93020923 25:0.93151948 26:0.93251954 27:0.92169323 28:0.90451863 29:0.90050723 30:0.85610366 31:0.86361279 32:0.86683322 
-0.75836271375567732 1:-0.21349231 2:-0.31073226 3:-0.14810345 4:0.21961206 5:0.2579927 6:0.31313113 7:0.40502193 8:0.44071481 9:0.42322777 10:0.38846136 11:0.35181059 12:0.28964836 13:0.38545451 14:0.31954867 15:0.29208883 16:0.41556532 17:0.36467084 18:0.36948925 19:0.41284859 20:0.39945477 21:0.40145178 22:0.39180897 23:0.39993253 24:0.42094265 25:0.43447446 26:0.43112445 27:0.40359423 28:0.38145447 29:0.34713618 30:0.24808064 31:0.20803922 32:0.18500917 
5 1:0.99702424 2:0.99724464 3:0.99757026 4:0.99677896 5:0.99791184 6:0.99716957 7:0.99725612 8:0.99722881 9:0.99746582 10:0.99798193 11:0.99756473 12:0.99915881 13:0.99818717 14:0.9970109 15:0.99713697 16:0.99916932 17:0.99891603 18:0.99838545 19:0.99976236 20:0.99986414 21:0.99972542 22:0.99979598 23:0.9997702 24:0.99993492 25:0.99997499 26:0.99991905 27:0.9998534 28:0.99974188 29:0.99973225 30:0.99922992 31:0.99941709 32:0.99716207 
5 1:0.94460811 2:0.95585654 3:0.96463116 4:0.96981185 5:0.95930934 6:0.95969202 7:0.96057481 8:0.94691799 9:0.94793657 10:0.95255708 11:0.95104059 12:0.9520632 13:0.95466971 14:0.96242289 15:0.96949136 16:0.97435064 17:0.98029019 18:0.9815353 19:0.97908229 20:0.97210926 21:0.97180969 22:0.97783183 23:0.97687061 24:0.97463411 25:0.97788062 26:0.98792003 27:0.98699504 28:0.98840157 29:0.9836215 30:0.96951186 31:0.95736152 32:0.95784619 
-2.8227331330539633 1:0.80317407 2:0.82272048 3:0.80071112 4:0.75765296 5:0.74753686 6:0.78527073 7:0.79749615 8:0.78228744 9:0.79893959 10:0.82782223 11:0.84895735 12:0.85922861 13:0.81181342 14:0.81784269 15:0.8427908 16:0.86148974 17:0.83938007 18:0.80180157 19:0.7631922 20:0.75268383 21:0.79381724 22:0.74779695 23:0.73390004 24:0.74239187 25:0.75949235 26:0.82568411 27:0.8451202 28:0.88032434 29:0.88205835 30:0.88838381 31:0.88314016 32:0.86584236 
5 1:0.91371738 2:0.9382873 3:0.91605261 4:0.90962914 5:0.92077704 6:0.92177673 7:0.92594124 8:0.94154282 9:0.94208045 10:0.93826423 11:0.93453144 12:0.95322124 13:0.9664429 14:0.96938183 15:0.96676234 16:0.9573946 17:0.95496224 18:0.95610953 19:0.96509017 20:0.95889548 21:0.9588854 22:0.95035811 23:0.92502606 24:0.9241669 25:0.9327989 26:0.93320892 27:0.93195182 28:0.93253466 29:0.90805471 30:0.8500226 31:0.85103792 32:0.83355432 
-0.010461267488918905 1:-0.27860439 2:-0.28169333 3:0.11730595 4:0.33880459 5:0.34825189 6:0.3631736 7:0.43355323 8:0.48229997 9:0.49166665 10:0.47785103 11:0.47592131 12:0.42966804 13:0.42724705 14:0.5112746 15:0.60617174 16:0.5656597 17:0.54543586 18:0.56490114 19:0.5656397 20:0.56093138 21:0.55714314 22:0.50117515 23:0.44492834 24:0.44085759 25:0.45084284 26:0.46797321 27:0.46209041 28:0.43738138 29:0.3399591 30:0.20693339 31:0.23169987 32:0.22505347 
1.4076660275959167 1:0.76459328 2:0.77265405 3:0.80156656 4:0.8915286 5:0.9365488 6:0.95958216 7:0.94314612 8:0.93398063 9:0.92724805 10:0.9392295 11:0.95503143 12:0.98582671 13:0.99481338 14:0.99232463 15:0.99335602 16:0.9965123 17:0.99810186 18:0.99964744 19:0.99998836 20:0.99999544 21:0.99999568 22:0.99997628 23:0.99994843 24:0.99995567 25:0.9999486 26:0.99997238 27:0.99998895 28:0.99996643 29:0.99997651 30:0.99978032 31:0.99991379 32:0.99992991 
0.49582897744012078 1:0.28099246 2:0.32608169 3:0.38749766 4:0.40466094 5:0.36532895 6:0.49178137 7:0.5403502 8:0.47767628 9:0.53328237 10:0.53306506 11:0.48556157 12:0.49785857 13:0.53858866 14:0.57823805 15:0.57158327 16:0.49102202 17:0.50760798 18:0.54485853 19:0.50106784 20:0.55413428 21:0.55203399 22:0.49916989 23:0.42478887 24:0.38945472 25:0.44802771 26:0.46117052 27:0.40663736 28:0.57429592 29:0.58054199 30:0.30497879 31:0.22703152 32:0.35852807 
0.37791187110253188 1:0.66038076 2:0.75687996 3:0.88867399 4:0.92032839 5:0.90200587 6:0.8946702 7:0.87692969 8:0.88225615 9:0.87981271 10:0.88958201 11:0.86559213 12:0.84950094 13:0.83704593 14:0.84228879 15:0.85398983 16:0.86872614 17:0.87233189 18:0.85544587 19:0.88226965 20:0.88336294 21:0.90324425 22:0.90158664 23:0.852211 24:0.76579204 25:0.77689306 26:0.78990475 27:0.82035153 28:0.82517923 29:0.77139978 30:0.67011074 31:0.64634905 32:0.6549781 
4.4801453189986296 1:0.97371267 2:0.99005704 3:0.99409044 4:0.99603426 5:0.99788357 6:0.99971166 7:0.99987797 8:0.9997587 9:0.99939518 10:0.99883807 11:0.9980245 12:0.9967258 13:0.99828138 14:0.99966526 15:0.99965319 16:0.99971301 17:0.99976119 18:0.99926054 19:0.99865837 20:0.99870463 21:0.99491029 22:0.97827303 23:0.96926756 24:0.72603786 25:0.59313012 26:0.50425768 27:0.48645992 28:0.49858637 29:0.548568 30:0.58383367 31:0.57774648 32:0.61003104 
5 1:0.76075467 2:0.74826852 3:0.7538876 4:0.74430887 5:0.73569721 6:0.74167623 7:0.72759526 8:0.72085468 9:0.73787734 10:0.74553273 11:0.73237835 12:0.72735191 13:0.72178348 14:0.74054344 15:0.76767086 16:0.78256605 17:0.77938421 18:0.79311648 19:0.79486198 20:0.7899994 21:0.79819368 22:0.81657457 23:0.8434075 24:0.85372666 25:0.85137044 26:0.85285872 27:0.86273653 28:0.88788069 29:0.89256031 30:0.92768748 31:0.94007947 32:0.93035972 
5 1:0.92566264 2:0.94748942 3:0.95362458 4:0.94548226 5:0.9483161 6:0.95345218 7:0.95152618 8:0.9454613 9:0.95316693 10:0.96341971 11:0.96650958 12:0.95681358 13:0.95016443 14:0.96188521 15:0.96913409 16:0.96835899 17:0.96325949 18:0.97235712 19:0.97919369 20:0.96936378 21:0.96900058 22:0.95919286 23:0.95486606 24:0.96170346 25:0.96571449 26:0.97030146 27:0.96865511 28:0.96840402 29:0.95119465 30:0.93055287 31:0.93099378 32:0.93621798 
0.18392358366724132 1:0.94770557 2:0.97254098 3:0.98890261 4:0.99615405 5:0.99694939 6:0.99851356 7:0.99947765 8:0.99893724 9:0.99814272 10:0.99524269 11:0.99743002 12:0.99815576 13:0.99706917 14:0.99646543 15:0.99663182 16:0.99515789 17:0.99465931 18:0.99600094 19:0.99129772 20:0.98148589 21:0.98236115 22:0.97865892 23:0.96229379 24:0.56051873 25:0.53201794 26:0.52211929 27:0.51959019 28:0.51381661 29:0.59216872 30:0.66025816 31:0.64409576 32:0.69080789 
5 1:0.99813327 2:0.99798224 3:0.99664464 4:0.99763477 5:0.99626568 6:0.99670144 7:0.99854638 8:0.99689016 9:0.99740724 10:0.99670615 11:0.99250019 12:0.99677989 13:0.99606289 14:0.98489178 15:0.95825123 16:0.96205406 17:0.97645926 18:0.96153861 19:0.94607165 20:0.97194332 21:0.95820276 22:0.92088297 23:0.92887187 24:0.97581076 25:0.9764868 26:0.97639209 27:0.98296408 28:0.98112197 29:0.9767216 30:0.95638714 31:0.95290964 32:0.96863032 
-0.60580893266048008 1:0.99417861 2:0.79385352 3:0.62613915 4:0.57550711 5:0.58115808 6:0.57824427 7:0.57925342 8:0.57689027 9:0.58246958 10:0.60167317 11:0.63642381 12:0.70030434 13:0.70903966 14:0.69977631 15:0.69483477 16:0.71902152 17:0.78251289 18:0.81103166 19:0.83073762 20:0.84457143 21:0.8861989 22:0.96258282 23:0.9744759 24:0.99424754 25:0.99351071 26:0.99368743 27:0.99671195 28:0.9998671 29:0.99982333 30:0.99968734 31:0.99971824 32:0.99961272 
-5 1:0.78796706 2:0.7776716 3:0.76861554 4:0.7566225 5:0.77363879 6:0.75561603 7:0.7252064 8:0.74792936 9:0.74528734 10:0.75155565 11:0.74347824 12:0.73532615 13:0.73420456 14:0.71519183 15:0.74394217 16:0.78166548 17:0.79195626 18:0.80907508 19:0.80327092 20:0.80585818 21:0.78883452 22:0.74115218 23:0.75339449 24:0.78220899 25:0.80700706 26:0.81530234 27:0.83586627 28:0.87265972 29:0.9054685 30:0.94528135 31:0.94714338 32:0.93696641 
5 1:0.99568422 2:0.99928493 3:0.99933097 4:0.99936167 5:0.99883707 6:0.99902264 7:0.99865308 8:0.99848278 9:0.99823375 10:0.99779603 11:0.99761594 12:0.99737689 13:0.99563842 14:0.989353 15:0.99366133 16:0.9943898 17:0.99226505 18:0.99283869 19:0.99382944 20:0.98981326 21:0.9917095 22:0.99017983 23:0.98068485 24:0.97342724 25:0.97493727 26:0.9772538 27:0.98498353 28:0.9803512 29:0.97097637 30:0.96270996 31:0.96679473 32:0.96647089 
-0.17135913766981486 1:0.72301648 2:0.79619263 3:0.92625236 4:0.96421906 5:0.96499668 6:0.97030298 7:0.97352106 8:0.9693901 9:0.95723539 10:0.95840573 11:0.94645202 12:0.92092289 13:0.91045259 14:0.94226236 15:0.95873303 16:0.96090537 17:0.95188951 18:0.94396271 19:0.94367361 20:0.93078418 21:0.90707332 22:0.79143886 23:0.62926557 24:0.55752722 25:0.51292053 26:0.60236969 27:0.65369639 28:0.63068092 29:0.67109411 30:0.70032558 31:0.70681641 32:0.72417106 
2.5213000968961938 1:0.96850361 2:0.98736929 3:0.99775138 4:0.99773333 5:0.99862217 6:0.99964545 7:0.99986204 8:0.9995162 9:0.99978019 10:0.99952652 11:0.99908346 12:0.99887039 13:0.99849936 14:0.99953163 15:0.9986633 16:0.99818365 17:0.99822327 18:0.99932208 19:0.99909735 20:0.99916829 21:0.99880885 22:0.99675101 23:0.981876 24:0.61788421 25:0.56480302 26:0.58204767 27:0.57254969 28:0.57237979 29:0.64207267 30:0.69446307 31:0.69881426 32:0.75043414 
-1.5238779206650208 1:0.023496019 2:-0.27724368 3:-0.041068886 4:0.48850221 5:0.44958972 6:0.43032721 7:0.37684334 8:0.36161835 9:0.33434297 10:0.2093914 11:0.12211754 12:0.10316669 13:0.14261697 14:-0.013063851 15:0.055536807 16:0.31112673 17:0.27237905 18:0.31089251 19:0.38735174 20:0.39312686 21:0.27487761 22:0.1677556 23:0.079116985 24:0.099559279 25:0.25510918 26:0.46718111 27:0.49286879 28:0.58659516 29:0.57188005 30:0.31839599 31:0.29803327 32:0.30053171 
-0.53458585475761489 1:0.84586335 2:0.85473352 3:0.85369984 4:0.82841786 5:0.82109759 6:0.82149151 7:0.82898091 8:0.83371746 9:0.83661979 10:0.82166613 11:0.8059804 12:0.79709507 13:0.80561315 14:0.82327974 15:0.83860269 16:0.85179581 17:0.84243435 18:0.85274741 19:0.83804683 20:0.84397175 21:0.86671848 22:0.86424204 23:0.84849165 24:0.81884784 25:0.83432115 26:0.84682255 27:0.87645228 28:0.88182168 29:0.87487454 30:0.84350014 31:0.82797528 32:0.82097927 
-5 1:0.94644873 2:0.96384446 3:0.96815528 4:0.97463802 5:0.97394964 6:0.9746695 7:0.96532969 8:0.97595166 9:0.9772756 10:0.97757185 11:0.97429401 12:0.97177859 13:0.97552197 14:0.97471322 15:0.9763152 16:0.97922821 17:0.96348281 18:0.96301035 19:0.96525346 20:0.96594708 21:0.9549176 22:0.95338292 23:0.94237799 24:0.95208012 25:0.9671561 26:0.97327358 27:0.96288036 28:0.9653159 29:0.95167164 30:0.92911936 31:0.93243391 32:0.92827105 
5 1:0.85920017 2:0.83805524 3:0.81019935 4:0.81615095 5:0.82882496 6:0.83149396 7:0.81736979 8:0.80931847 9:0.82254202 10:0.83487569 11:0.84931915 12:0.84519806 13:0.82624601 14:0.82812676 15:0.82842237 16:0.83511276 17:0.82196042 18:0.84447985 19:0.834334 20:0.82822723 21:0.84655738 22:0.85464485 23:0.85734632 24:0.87394171 25:0.88729083 26:0.88577813 27:0.89680925 28:0.92067232 29:0.93489181 30:0.968891 31:0.97002311 32:0.96059554 
-0.027374972659852309 1:0.44909803 2:0.51915982 3:0.5569695 4:0.56993113 5:0.58924056 6:0.58997368 7:0.5841555 8:0.57668755 9:0.5674026 10:0.55865274 11:0.5576362 12:0.5614639 13:0.57018934 14:0.57722276 15:0.58754701 16:0.62325209 17:0.62823076 18:0.63615365 19:0.67035674 20:0.74703552 21:0.79976067 22:0.81945939 23:0.85347117 24:0.79759031 25:0.75986109 26:0.75826068 27:0.78576136 28:0.84064294 29:0.88469918 30:0.96794761 31:0.97948272 32:0.98490043 
-0.57028253485852043 1:0.79512938 2:0.75423081 3:0.73332727 4:0.73834031 5:0.75054303 6:0.76581675 7:0.77582614 8:0.76992474 9:0.78604845 10:0.80000501 11:0.82158638 12:0.83800156 13:0.82557682 14:0.81491378 15:0.81534372 16:0.82685803 17:0.84647877 18:0.84842354 19:0.8544924 20:0.86097615 21:0.89779528 22:0.89704332 23:0.92499534 24:0.91356994 25:0.9149946 26:0.91939792 27:0.92714849 28:0.97297143 29:0.99895932 30:0.99847119 31:0.997758 32:0.99749216 
-0.33946528677658427 1:0.96474948 2:0.98742365 3:0.99504617 4:0.9994411 5:0.99986434 6:0.99984474 7:0.99985709 8:0.9998203 9:0.99976603 10:0.99934127 11:0.99877982 12:0.99808369 13:0.99759124 14:0.99880546 15:0.99902753 16:0.99627725 17:0.99721976 18:0.99717972 19:0.99672338 20:0.99795325 21:0.99675883 22:0.98682529 23:0.95218238 24:0.69146803 25:0.62225767 26:0.56324642 27:0.56242575 28:0.58502632 29:0.64327354 30:0.66976236 31:0.67496692 32:0.71292354 
-5 1:0.89148508 2:0.88658083 3:0.87506299 4:0.84778677 5:0.86277377 6:0.87245462 7:0.85766216 8:0.84764395 9:0.86369487 10:0.87132788 11:0.86835782 12:0.86519132 13:0.90273851 14:0.90601068 15:0.90000808 16:0.90480685 17:0.89794662 18:0.92009072 19:0.92327934 20:0.93479003 21:0.94367599 22:0.90729737 23:0.89181735 24:0.90521075 25:0.92494698 26:0.94975838 27:0.9594001 28:0.94989184 29:0.93866552 30:0.91087153 31:0.91926995 32:0.8995427 
-5 1:0.98312734 2:0.99391 3:0.99367931 4:0.98360582 5:0.98771142 6:0.98739591 7:0.98674383 8:0.98754292 9:0.98855426 10:0.98625134 11:0.9892299 12:0.98977663 13:0.98899537 14:0.98816337 15:0.98884208 16:0.9886952 17:0.98870453 18:0.99047738 19:0.99007659 20:0.98678609 21:0.98698514 22:0.98356249 23:0.98612909 24:0.98987445 25:0.99145756 26:0.98949632 27:0.98804339 28:0.97956215 29:0.97040883 30:0.95899 31:0.96391044 32:0.96530313 
-1.2189000994654735 1:0.92905843 2:0.9206825 3:0.9087747 4:0.90859469 5:0.91743205 6:0.92551548 7:0.91714223 8:0.9211063 9:0.92611052 10:0.89958636 11:0.87454212 12:0.89324069 13:0.90945129 14:0.91792193 15:0.91882767 16:0.92716713 17:0.93380916 18:0.92503941 19:0.92566716 20:0.93877345 21:0.93253344 22:0.89505761 23:0.89622666 24:0.89876077 25:0.89880081 26:0.9174475 27:0.92313931 28:0.94517061 29:0.95937267 30:0.93688384 31:0.94574204 32:0.93883286 
-5 1:0.98789264 2:0.98578515 3:0.98871437 4:0.99006257 5:0.99012937 6:0.99220814 7:0.98864902 8:0.98773725 9:0.98776717 10:0.98274064 11:0.97878406 12:0.98355135 13:0.99013101 14:0.9890808 15:0.98620506 16:0.99150591 17:0.99146457 18:0.99098698 19:0.98885395 20:0.99256709 21:0.99408639 22:0.99490897 23:0.99184185 24:0.99073899 25:0.99513781 26:0.9935236 27:0.98555282 28:0.99105471 29:0.9916267 30:0.99024082 31:0.98984303 32:0.9929292 
-0.88754445418221239 1:0.97506843 2:0.98892874 3:0.99833415 4:0.99899679 5:0.99955883 6:0.99981793 7:0.99991455 8:0.99974901 9:0.99959661 10:0.99934891 11:0.99890547 12:0.99833872 13:0.99885031 14:0.99880338 15:0.99894802 16:0.99841477 17:0.99820689 18:0.99890702 19:0.9984002 20:0.99752928 21:0.99392726 22:0.97904053 23:0.93811511 24:0.55159552 25:0.47938973 26:0.54804318 27:0.54863029 28:0.54559004 29:0.6035686 30:0.65207942 31:0.66017473 32:0.71347882 
-5 1:0.95560561 2:0.96769809 3:0.98637488 4:0.9904245 5:0.98996573 6:0.99001029 7:0.99091123 8:0.98908896 9:0.98410671 10:0.98149635 11:0.96412187 12:0.97305375 13:0.98078987 14:0.97521818 15:0.97175459 16:0.9748943 17:0.97968259 18:0.97106522 19:0.96011529 20:0.97027336 21:0.97154918 22:0.97609956 23:0.96419152 24:0.93792056 25:0.93854829 26:0.96054158 27:0.954801 28:0.97205377 29:0.95883194 30:0.94212724 31:0.93750261 32:0.95103069 
0.4968897727018623 1:0.76814023 2:0.79894109 3:0.81069192 4:0.78722786 5:0.70831505 6:0.70564511 7:0.72070464 8:0.7271302 9:0.72695965 10:0.75068571 11:0.74785687 12:0.66246669 13:0.6838197 14:0.72722844 15:0.7406142 16:0.79867144 17:0.82761234 18:0.80162396 19:0.72199567 20:0.74424906 21:0.80446057 22:0.77738321 23:0.74470102 24:0.72384799 25:0.74496331 26:0.71218513 27:0.70601674 28:0.80580985 29:0.80079937 30:0.77345468 31:0.78598343 32:0.78490498 
0.97810549917100231 1:0.53087391 2:0.55331401 3:0.65949069 4:0.87594268 5:0.93058946 6:0.96751972 7:0.98280311 8:0.96548348 9:0.93528461 10:0.92403397 11:0.86098799 12:0.80149623 13:0.7784062 14:0.7997809 15:0.91514449 16:0.99765137 17:0.99478303 18:0.99664667 19:0.99755023 20:0.99371107 21:0.99470245 22:0.99229024 23:0.99310686 24:0.99823946 25:0.99977355 26:0.99997652 27:0.99990264 28:0.99993522 29:0.99995844 30:0.99994996 31:0.99988986 32:0.99990588 
5 1:0.88370757 2:0.92102692 3:0.93760884 4:0.93186187 5:0.94038348 6:0.94977281 7:0.94897298 8:0.9420712 9:0.94904095 10:0.95432389 11:0.94539948 12:0.94105917 13:0.94699296 14:0.95096972 15:0.95257672 16:0.9558989 17:0.95462009 18:0.95344591 19:0.9549149 20:0.96026047 21:0.97118811 22:0.97335491 23:0.96945737 24:0.95061913 25:0.94886973 26:0.95327412 27:0.95247269 28:0.9669081 29:0.95892423 30:0.93034749 31:0.93125263 32:0.93049884 
-5 1:0.93566166 2:0.94557102 3:0.94081829 4:0.92190055 5:0.91874016 6:0.91120891 7:0.90729385 8:0.90450696 9:0.8972966 10:0.89752589 11:0.89066425 12:0.88532673 13:0.90032709 14:0.90416477 15:0.92094152 16:0.93172349 17:0.94442664 18:0.93942484 19:0.93874633 20:0.93245448 21:0.9321332 22:0.92927952 23:0.91568462 24:0.90375722 25:0.90492937 26:0.90297733 27:0.90739313 28:0.92725996 29:0.90865726 30:0.86688267 31:0.87321398 32:0.87611528 
5 1:1 2:1 3:1 4:1 5:1 6:1 7:1 8:1 9:1 10:1 11:1 12:1 13:1 14:1 15:1 16:1 17:1 18:1 19:1 20:1 21:1 22:1 23:1 24:1 25:1 26:1 27:1 28:1 29:1 30:1 31:1 32:1 
5 1:0.94932812 2:0.96573337 3:0.99820522 4:0.9994315 5:0.99966272 6:0.99907121 7:0.99884488 8:0.99883663 9:0.99930314 10:0.99959229 11:0.99833739 12:0.99442866 13:0.99656146 14:0.99786434 15:0.99698845 16:0.99063623 17:0.98509093 18:0.98457237 19:0.99103884 20:0.99396545 21:0.99191522 22:0.97523059 23:0.93460799 24:0.90830469 25:0.93717994 26:0.94628659 27:0.9420336 28:0.96671932 29:0.95760424 30:0.95270945 31:0.94483549 32:0.95827993 
-2.757290344142906 1:0.99215583 2:0.94238385 3:0.89003096 4:0.88092225 5:0.87438935 6:0.85300842 7:0.85711299 8:0.85674735 9:0.85041949 10:0.87067945 11:0.88674386 12:0.90591841 13:0.90771621 14:0.9051201 15:0.86425388 16:0.8657862 17:0.8733805 18:0.89549059 19:0.88177954 20:0.88148096 21:0.88462058 22:0.91457767 23:0.93387072 24:0.97977825 25:0.97899277 26:0.98624009 27:0.98842812 28:0.990265 29:0.98900159 30:0.98965984 31:0.99259961 32:0.98953246 
-3.60081395691775 1:0.99399095 2:0.99556738 3:0.98012281 4:0.97586987 5:0.97111267 6:0.98000692 7:0.97859067 8:0.96617438 9:0.97423078 10:0.98015695 11:0.96623261 12:0.9740778 13:0.98308493 14:0.98160029 15:0.98069268 16:0.98910304 17:0.97682396 18:0.96824203 19:0.97645448 20:0.97857158 21:0.98028287 22:0.98192221 23:0.98484366 24:0.98670896 25:0.9869324 26:0.98666093 27:0.99065556 28:0.99880573 29:0.99842086 30:0.9975764 31:0.99661114 32:0.99505715 
-5 1:0.96222493 2:0.98135948 3:0.97813704 4:0.9839384 5:0.97602844 6:0.97361517 7:0.9780568 8:0.9815579 9:0.97929831 10:0.98043588 11:0.97707045 12:0.97787637 13:0.97324054 14:0.96830072 15:0.97814764 16:0.97467447 17:0.97489797 18:0.98033429 19:0.97680845 20:0.96725882 21:0.97748626 22:0.97295409 23:0.95896343 24:0.96456648 25:0.97297093 26:0.97194362 27:0.9686515 28:0.97425765 29:0.9607595 30:0.93604439 31:0.93173019 32:0.92772821 
5 1:1 2:1 3:1 4:1 5:1 6:1 7:1 8:1 9:1 10:1 11:1 12:1 13:1 14:1 15:1 16:1 17:1 18:1 19:1 20:1 21:1 22:1 23:1 24:1 25:1 26:1 27:1 28:1 29:1 30:1 31:1 32:1 
5 1:0.90001458 2:0.95035133 3:0.96370294 4:0.97007021 5:0.97748736 6:0.97927768 7:0.98815992 8:0.99217843 9:0.99111289 10:0.98373089 11:0.98010425 12:0.96302613 13:0.9473039 14:0.96155861 15:0.97989033 16:0.97433245 17:0.96232617 18:0.96428138 19:0.95212866 20:0.94624621 21:0.92290923 22:0.8799068 23:0.8492836 24:0.42882207 25:0.46064904 26:0.56106361 27:0.54883585 28:0.5094779 29:0.57225261 30:0.62872781 31:0.61497652 32:0.64375926 
0.73253187927847307 1:0.37435082 2:0.45551162 3:0.49491338 4:0.52264543 5:0.55529779 6:0.56948022 7:0.58676899 8:0.75464641 9:0.8617275 10:0.94994946 11:0.98214025 12:0.97981357 13:0.99099246 14:0.99203793 15:0.99378561 16:0.99173276 17:0.99580158 18:0.99488537 19:0.99682473 20:0.99995613 21:0.99997439 22:0.99995244 23:0.99955775 24:0.9992585 25:0.99981834 26:0.99997946 27:0.99997502 28:0.9999564 29:0.9997359 30:0.99886288 31:0.99858433 32:0.99630533 
-1.1145661522642698 1:0.99313036 2:0.82599924 3:0.65221827 4:0.61710833 5:0.60959971 6:0.60583961 7:0.60052429 8:0.60121989 9:0.60493564 10:0.6225943 11:0.64834342 12:0.66767738 13:0.66339225 14:0.69244105 15:0.74671465 16:0.86012734 17:0.91273709 18:0.91728645 19:0.9317303 20:0.94237546 21:0.96774111 22:0.97314317 23:0.98190242 24:0.99358034 25:0.98492592 26:0.97965916 27:0.98939031 28:0.99992037 29:0.99990588 30:0.99980437 31:0.99963308 32:0.99974626 
2.6139888160332272 1:0.83410734 2:0.82709303 3:0.78248579 4:0.70765534 5:0.70127544 6:0.691414 7:0.6675955 8:0.65342741 9:0.66909327 10:0.65364882 11:0.67706334 12:0.75611753 13:0.7873157 14:0.73674132 15:0.65676614 16:0.65028099 17:0.69025737 18:0.76569384 19:0.77252083 20:0.77153109 21:0.76866142 22:0.75922726 23:0.76413419 24:0.71899222 25:0.7155357 26:0.76775732 27:0.81379735 28:0.84882858 29:0.87903111 30:0.90433172 31:0.9453283 32:0.92641855 
5 1:0.99060672 2:0.99147476 3:0.97025787 4:0.95064368 5:0.95622605 6:0.97590882 7:0.98001314 8:0.966232 9:0.94143793 10:0.92605732 11:0.91851984 12:0.9152115 13:0.93202307 14:0.94606321 15:0.96745181 16:0.97387722 17:0.98248887 18:0.97916696 19:0.97950231 20:0.96877367 21:0.9564162 22:0.95626072 23:0.95770732 24:0.96796564 25:0.97243424 26:0.97192891 27:0.97446799 28:0.97347376 29:0.97686302 30:0.99661841 31:0.99469689 32:0.99342545 
5 1:1 2:1 3:1 4:1 5:1 6:1 7:1 8:1 9:1 10:1 11:1 12:1 13:1 14:1 15:1 16:1 17:1 18:1 19:1 20:1 21:1 22:1 23:1 24:1 25:1 26:1 27:1 28:1 29:1 30:1 31:1 32:1 
1.1393660988372667 1:0.99848256 2:0.99945652 3:0.99967648 4:0.9997556 5:0.99987217 6:0.99976345 7:0.99960217 8:0.99949386 9:0.99851004 10:0.99593799 11:0.9949843 12:0.99364123 13:0.99198834 14:0.99116167 15:0.99414762 16:0.99436687 17:0.99369423 18:0.9931934 19:0.99474871 20:0.994606 21:0.99466058 22:0.99416209 23:0.99642462 24:0.99587914 25:0.99423374 26:0.99358283 27:0.99518104 28:0.99814544 29:0.99785482 30:0.99357896 31:0.99450017 32:0.99069537 
-5 1:0.98668192 2:0.9934128 3:0.99246854 4:0.99221765 5:0.99249722 6:0.99368859 7:0.99340799 8:0.99320549 9:0.98969728 10:0.99226682 11:0.99404958 12:0.99824446 13:0.99751391 14:0.99411297 15:0.99023942 16:0.98979921 17:0.99109317 18:0.99445993 19:0.98853072 20:0.98640548 21:0.98875384 22:0.99337245 23:0.99284555 24:0.99261833 25:0.99263395 26:0.9948535 27:0.9957799 28:0.99385088 29:0.99352423 30:0.99032571 31:0.98983664 32:0.9888155 
-5 1:0.92933031 2:0.92867297 3:0.8845446 4:0.86565334 5:0.87541511 6:0.90743847 7:0.89988857 8:0.87960242 9:0.87095786 10:0.86006514 11:0.87962988 12:0.87422614 13:0.89710166 14:0.89220743 15:0.8949189 16:0.89995899 17:0.90807455 18:0.8774708 19:0.88126954 20:0.90991646 21:0.90721945 22:0.84600991 23:0.84629932 24:0.85820305 25:0.88631116 26:0.92641597 27:0.92937729 28:0.92529366 29:0.92155023 30:0.89154276 31:0.89276392 32:0.89291635 
-0.71364599430083087 1:0.88417204 2:0.95121813 3:0.97664986 4:0.98275282 5:0.98707799 6:0.98478088 7:0.98563235 8:0.98234528 9:0.98614535 10:0.97197908 11:0.94271028 12:0.92452806 13:0.93985955 14:0.94988131 15:0.92980796 16:0.8710338 17:0.79609503 18:0.75151598 19:0.7469059 20:0.77204331 21:0.69081173 22:0.57058325 23:0.53238706 24:0.48187114 25:0.50964711 26:0.55034288 27:0.5814033 28:0.59203978 29:0.64001577 30:0.67257442 31:0.68064296 32:0.72009722 
5 1:0.93283809 2:0.90321389 3:0.85836816 4:0.85630961 5:0.8758089 6:0.92276616 7:0.91436107 8:0.88517443 9:0.9438549 10:0.95428338 11:0.9892558 12:0.99663998 13:0.99476097 14:0.99863962 15:0.99991604 16:0.99988703 17:0.99998953 18:0.99997581 19:0.99994299 20:0.99997726 21:0.99998633 22:0.99998904 23:0.99997893 24:0.99995969 25:0.99988154 26:0.99986417 27:0.99991659 28:0.99990069 29:0.99986759 30:0.99989854 31:0.99993239 32:0.99990686 
-5 1:0.99929993 2:0.99967963 3:0.99972688 4:0.9998598 5:0.99976581 6:0.99990576 7:0.99986888 8:0.99985458 9:0.99988017 10:0.99950628 11:0.99954358 12:0.99941971 13:0.99967932 14:0.99960681 15:0.99970524 16:0.99978615 17:0.99987748 18:0.99985343 19:0.99992971 20:0.99981154 21:0.9998018 22:0.99964418 23:0.99994546 24:0.99988226 25:0.99979263 26:0.99985104 27:0.99984312 28:0.9989787 29:0.99608864 30:0.99382551 31:0.99538218 32:0.99556321 
-5 1:0.96531041 2:0.97618038 3:0.98835398 4:0.98874538 5:0.98828731 6:0.98850679 7:0.98752277 8:0.98625055 9:0.98652907 10:0.98662389 11:0.98747091 12:0.98431289 13:0.97993899 14:0.98714743 15:0.9856148 16:0.98670759 17:0.98991112 18:0.99130027 19:0.99217157 20:0.9925137 21:0.99356345 22:0.99272029 23:0.98580506 24:0.97985527 25:0.98372491 26:0.98436512 27:0.98169114 28:0.97702529 29:0.96860379 30:0.95972077 31:0.9628128 32:0.96807004 
-5 1:0.98411172 2:0.98753203 3:0.98524887 4:0.99002415 5:0.99047874 6:0.98814878 7:0.99179661 8:0.9879789 9:0.99006753 10:0.99187594 11:0.99441641 12:0.99443192 13:0.99550896 14:0.99538163 15:0.99533252 16:0.99613012 17:0.99483591 18:0.99323912 19:0.99374031 20:0.99137017 21:0.99416907 22:0.9942348 23:0.99637247 24:0.9977683 25:0.99762067 26:0.99859331 27:0.99918653 28:0.99897108 29:0.99608868 30:0.9916708 31:0.99436028 32:0.99437493 
-2.1973947107765475 1:0.8968215 2:0.8819899 3:0.88251597 4:0.87911981 5:0.8864632 6:0.91901093 7:0.91463757 8:0.90341275 9:0.90440076 10:0.89915265 11:0.89738674 12:0.90122657 13:0.91189306 14:0.93729739 15:0.92002186 16:0.93745821 17:0.95121325 18:0.94641178 19:0.93532733 20:0.94225471 21:0.93702241 22:0.89179351 23:0.90343267 24:0.91963194 25:0.91619008 26:0.95514884 27:0.96604785 28:0.98064532 29:0.98454111 30:0.9597194 31:0.96501722 32:0.94821058 
2.4110090387321663 1:0.95424952 2:0.9718038 3:0.98028994 4:0.98362726 5:0.99563378 6:0.99877988 7:0.99945894 8:0.99886653 9:0.99319113 10:0.99518017 11:0.99633602 12:0.9957761 13:0.99444145 14:0.99221728 15:0.98728695 16:0.99063508 17:0.98165298 18:0.96228163 19:0.92712028 20:0.87148153 21:0.81439862 22:0.74325694 23:0.74999218 24:0.67899727 25:0.55128693 26:0.49724506 27:0.550359 28:0.55410885 29:0.59153849 30:0.60123061 31:0.60460384 32:0.63859512 
-0.55972871671642532 1:0.6515025 2:0.69298659 3:0.59738811 4:0.5215176 5:0.47549691 6:0.44517463 7:0.46608808 8:0.42075433 9:0.44274885 10:0.45469174 11:0.37449701 12:0.36199363 13:0.36637154 14:0.4191379 15:0.45934549 16:0.44477653 17:0.42006205 18:0.42151187 19:0.438924 20:0.44947864 21:0.52133431 22:0.4588224 23:0.36797742 24:0.34425742 25:0.31819562 26:0.39093058 27:0.49185299 28:0.61500565 29:0.59428095 30:0.45515682 31:0.41470696 32:0.41165661 
0.52909895598852508 1:0.46310562 2:0.4595306 3:0.5073586 4:0.53338775 5:0.54993651 6:0.57772866 7:0.58488648 8:0.58855542 9:0.59184421 10:0.59221417 11:0.58940828 12:0.58191088 13:0.58221567 14:0.5856903 15:0.59371783 16:0.59316767 17:0.59016621 18:0.59318985 19:0.58836115 20:0.59341301 21:0.59051122 22:0.59232007 23:0.59083531 24:0.59035735 25:0.68371353 26:0.71555364 27:0.80244505 28:0.93430746 29:0.94844955 30:0.98099749 31:0.98180239 32:0.98178707 
-0.21019141568048905 1:0.69625431 2:0.79761452 3:0.91069986 4:0.96223142 5:0.97060413 6:0.97468278 7:0.97964172 8:0.9827405 9:0.98091892 10:0.96649581 11:0.9118194 12:0.91408095 13:0.91956265 14:0.94186885 15:0.95185688 16:0.93267599 17:0.8983341 18:0.91893234 19:0.92551877 20:0.89540907 21:0.82717343 22:0.67787035 23:0.62852628 24:0.59014695 25:0.6258199 26:0.66031948 27:0.60860743 28:0.6073924 29:0.63652771 30:0.65336933 31:0.65668846 32:0.69109957 
1.4087705608730421 1:0.95998597 2:0.98509349 3:0.99908941 4:0.99970017 5:0.99973682 6:0.99990406 7:0.99985522 8:0.99973265 9:0.99955588 10:0.9988273 11:0.998273 12:0.99817998 13:0.99808189 14:0.99934537 15:0.99951822 16:0.99886728 17:0.99698574 18:0.99614735 19:0.99859269 20:0.99973826 21:0.99992084 22:0.99955045 23:0.99452219 24:0.65613337 25:0.57081176 26:0.61835379 27:0.6211333 28:0.62225426 29:0.68853407 30:0.74073642 31:0.74559851 32:0.77901399 
0.88403659452236683 1:0.95993323 2:0.986298 3:0.98806275 4:0.9892306 5:0.99298469 6:0.99071354 7:0.98839874 8:0.99192973 9:0.9888452 10:0.95447731 11:0.94352381 12:0.95547059 13:0.94075879 14:0.95028458 15:0.95170547 16:0.92045456 17:0.92138979 18:0.92197108 19:0.91464216 20:0.94075314 21:0.94228096 22:0.9030387 23:0.86435201 24:0.9009488 25:0.93205882 26:0.95003206 27:0.95241483 28:0.96889005 29:0.95818406 30:0.92476958 31:0.91054438 32:0.93659911 
-5 1:0.95584826 2:0.9810909 3:0.99702785 4:0.99937019 5:0.99965561 6:0.99982903 7:0.99981935 8:0.99977921 9:0.99978111 10:0.99960764 11:0.9993513 12:0.99921078 13:0.99933229 14:0.99929347 15:0.99927887 16:0.99981767 17:0.99910445 18:0.99859816 19:0.99777017 20:0.99872965 21:0.99769431 22:0.98657244 23:0.9719491 24:0.66340427 25:0.5751719 26:0.55905115 27:0.56183042 28:0.57057863 29:0.62471573 30:0.66598423 31:0.6806371 32:0.71894128 
0.14945546808106777 1:0.82888359 2:0.81196313 3:0.74935034 4:0.71196413 5:0.71338173 6:0.7502766 7:0.75135943 8:0.73512763 9:0.73191332 10:0.69972019 11:0.69270156 12:0.72362496 13:0.75190824 14:0.76790773 15:0.71353771 16:0.74662458 17:0.82718522 18:0.82343812 19:0.80347153 20:0.73356847 21:0.68404453 22:0.67411329 23:0.66991203 24:0.71923875 25:0.75414244 26:0.7301625 27:0.73049321 28:0.77260687 29:0.77482216 30:0.72065653 31:0.75448189 32:0.74642576 
5 1:0.94719218 2:0.98213077 3:0.99015546 4:0.99373146 5:0.99845945 6:0.99933647 7:0.99903849 8:0.99940575 9:0.99882039 10:0.99798042 11:0.99611884 12:0.99357121 13:0.99642866 14:0.99417388 15:0.97814074 16:0.97417202 17:0.96808486 18:0.96976925 19:0.96127153 20:0.95538699 21:0.93186387 22:0.87290066 23:0.7478329 24:0.62235262 25:0.60422007 26:0.56567734 27:0.56561803 28:0.56515184 29:0.61976139 30:0.6669472 31:0.68341745 32:0.73689871 
5 1:0.78340597 2:0.84743252 3:0.81848674 4:0.81704492 5:0.81214327 6:0.785701 7:0.77815103 8:0.79817073 9:0.79885117 10:0.77054188 11:0.75189188 12:0.77645512 13:0.78739806 14:0.78954869 15:0.79094343 16:0.76689455 17:0.77155172 18:0.79497731 19:0.78320852 20:0.78511418 21:0.81320335 22:0.81333645 23:0.78469343 24:0.78004748 25:0.77738427 26:0.78868921 27:0.78399063 28:0.83419732 29:0.81810155 30:0.70645031 31:0.68045927 32:0.67496108 
5 1:0.99974235 2:0.99965157 3:0.99949086 4:0.99915809 5:0.9990756 6:0.99962398 7:0.99975047 8:0.99976011 9:0.99980301 10:0.99986708 11:0.99981724 12:0.99988645 13:0.99992038 14:0.99988805 15:0.99987382 16:0.99983433 17:0.99974159 18:0.9997955 19:0.99985768 20:0.99982817 21:0.99966982 22:0.99957376 23:0.9997053 24:0.99979867 25:0.99984573 26:0.9998417 27:0.99976408 28:0.99968737 29:0.99951064 30:0.99926423 31:0.9993406 32:0.99937259 
-0.50921548337280409 1:0.39427374 2:0.44756548 3:0.50822381 4:0.49651381 5:0.40785989 6:0.37381644 7:0.32600662 8:0.32655193 9:0.38118913 10:0.41797891 11:0.42283953 12:0.32949604 13:0.29854173 14:0.27813246 15:0.35244992 16:0.45661925 17:0.4327193 18:0.41583824 19:0.40722646 20:0.44604341 21:0.52260956 22:0.51372902 23:0.37017972 24:0.28880299 25:0.31811908 26:0.41583166 27:0.48894241 28:0.61922636 29:0.58491595 30:0.37677516 31:0.33850228 32:0.36454886 
